{"learner":{"attributes":{"best_iteration":"485","best_ntree_limit":"486","best_score":"0.19894150628056148"},"feature_names":["MaxAbsEStateIndex","MaxEStateIndex","MinAbsEStateIndex","MinEStateIndex","qed","MolWt","HeavyAtomMolWt","ExactMolWt","NumValenceElectrons","MaxPartialCharge","MinPartialCharge","MaxAbsPartialCharge","MinAbsPartialCharge","FpDensityMorgan1","FpDensityMorgan2","FpDensityMorgan3","BCUT2D_MWHI","BCUT2D_MWLOW","BCUT2D_CHGHI","BCUT2D_CHGLO","BCUT2D_LOGPHI","BCUT2D_LOGPLOW","BCUT2D_MRHI","BCUT2D_MRLOW","AvgIpc","BalabanJ","BertzCT","Chi0","Chi0n","Chi0v","Chi1","Chi1n","Chi1v","Chi2n","Chi2v","Chi3n","Chi3v","Chi4n","Chi4v","HallKierAlpha","Ipc","Kappa1","Kappa2","Kappa3","LabuteASA","PEOE_VSA1","PEOE_VSA10","PEOE_VSA11","PEOE_VSA12","PEOE_VSA13","PEOE_VSA14","PEOE_VSA2","PEOE_VSA3","PEOE_VSA4","PEOE_VSA5","PEOE_VSA6","PEOE_VSA7","PEOE_VSA8","PEOE_VSA9","SMR_VSA1","SMR_VSA10","SMR_VSA2","SMR_VSA3","SMR_VSA4","SMR_VSA5","SMR_VSA6","SMR_VSA7","SMR_VSA9","SlogP_VSA1","SlogP_VSA10","SlogP_VSA11","SlogP_VSA12","SlogP_VSA2","SlogP_VSA3","SlogP_VSA4","SlogP_VSA5","SlogP_VSA6","SlogP_VSA7","SlogP_VSA8","TPSA","EState_VSA1","EState_VSA10","EState_VSA11","EState_VSA2","EState_VSA3","EState_VSA4","EState_VSA5","EState_VSA6","EState_VSA7","EState_VSA8","EState_VSA9","VSA_EState1","VSA_EState10","VSA_EState2","VSA_EState3","VSA_EState4","VSA_EState5","VSA_EState6","VSA_EState7","VSA_EState8","VSA_EState9","FractionCSP3","HeavyAtomCount","NHOHCount","NOCount","NumAliphaticCarbocycles","NumAliphaticHeterocycles","NumAliphaticRings","NumAromaticCarbocycles","NumAromaticHeterocycles","NumAromaticRings","NumHAcceptors","NumHDonors","NumHeteroatoms","NumRotatableBonds","NumSaturatedCarbocycles","NumSaturatedHeterocycles","NumSaturatedRings","RingCount","MolLogP","MolMR","fr_Al_COO","fr_Al_OH","fr_Al_OH_noTert","fr_ArN","fr_Ar_N","fr_Ar_NH","fr_Ar_OH","fr_COO","fr_COO2","fr_C_O","fr_C_O_noCOO","fr_C_S","fr_Imine","fr_NH0","fr_NH1","fr_NH2","fr_Ndealkylation1","fr_Ndealkylation2","fr_Nhpyrrole","fr_aldehyde","fr_alkyl_halide","fr_allylic_oxid","fr_amide","fr_amidine","fr_aniline","fr_aryl_methyl","fr_benzene","fr_bicyclic","fr_ester","fr_ether","fr_furan","fr_guanido","fr_halogen","fr_hdrzine","fr_hdrzone","fr_imidazole","fr_imide","fr_ketone","fr_ketone_Topliss","fr_lactone","fr_methoxy","fr_nitrile","fr_nitro","fr_nitro_arom","fr_nitro_arom_nonortho","fr_para_hydroxylation","fr_phenol","fr_phenol_noOrthoHbond","fr_piperdine","fr_piperzine","fr_pyridine","fr_sulfide","fr_sulfonamd","fr_term_acetylene","fr_thiazole","fr_thiophene","fr_unbrch_alkane"],"feature_types":["float","float","float","float","float","float","float","float","float","float","float","float","float","float","float","float","float","float","float","float","float","float","float","float","float","float","float","float","float","float","float","float","float","float","float","float","float","float","float","float","float","float","float","float","float","float","float","float","float","float","float","float","float","float","float","float","float","float","float","float","float","float","float","float","float","float","float","float","float","float","float","float","float","float","float","float","float","float","float","float","float","float","float","float","float","float","float","float","float","float","float","float","float","float","float","float","float","float","float","float","float","float","float","float","float","float","float","float","float","float","float","float","float","float","float","float","float","float","float","float","float","float","float","float","float","float","float","float","float","float","float","float","float","float","float","float","float","float","float","float","float","float","float","float","float","float","float","float","float","float","float","float","float","float","float","float","float","float","float","float","float","float","float","float","float","float","float","float","float","float","float","float","float","float","float","float","float","float"],"gradient_booster":{"model":{"gbtree_model_param":{"num_parallel_tree":"1","num_trees":"586","size_leaf_vector":"0"},"tree_info":[0,0,0,0,0,0,0,0,0,0,0,0,0,0,0,0,0,0,0,0,0,0,0,0,0,0,0,0,0,0,0,0,0,0,0,0,0,0,0,0,0,0,0,0,0,0,0,0,0,0,0,0,0,0,0,0,0,0,0,0,0,0,0,0,0,0,0,0,0,0,0,0,0,0,0,0,0,0,0,0,0,0,0,0,0,0,0,0,0,0,0,0,0,0,0,0,0,0,0,0,0,0,0,0,0,0,0,0,0,0,0,0,0,0,0,0,0,0,0,0,0,0,0,0,0,0,0,0,0,0,0,0,0,0,0,0,0,0,0,0,0,0,0,0,0,0,0,0,0,0,0,0,0,0,0,0,0,0,0,0,0,0,0,0,0,0,0,0,0,0,0,0,0,0,0,0,0,0,0,0,0,0,0,0,0,0,0,0,0,0,0,0,0,0,0,0,0,0,0,0,0,0,0,0,0,0,0,0,0,0,0,0,0,0,0,0,0,0,0,0,0,0,0,0,0,0,0,0,0,0,0,0,0,0,0,0,0,0,0,0,0,0,0,0,0,0,0,0,0,0,0,0,0,0,0,0,0,0,0,0,0,0,0,0,0,0,0,0,0,0,0,0,0,0,0,0,0,0,0,0,0,0,0,0,0,0,0,0,0,0,0,0,0,0,0,0,0,0,0,0,0,0,0,0,0,0,0,0,0,0,0,0,0,0,0,0,0,0,0,0,0,0,0,0,0,0,0,0,0,0,0,0,0,0,0,0,0,0,0,0,0,0,0,0,0,0,0,0,0,0,0,0,0,0,0,0,0,0,0,0,0,0,0,0,0,0,0,0,0,0,0,0,0,0,0,0,0,0,0,0,0,0,0,0,0,0,0,0,0,0,0,0,0,0,0,0,0,0,0,0,0,0,0,0,0,0,0,0,0,0,0,0,0,0,0,0,0,0,0,0,0,0,0,0,0,0,0,0,0,0,0,0,0,0,0,0,0,0,0,0,0,0,0,0,0,0,0,0,0,0,0,0,0,0,0,0,0,0,0,0,0,0,0,0,0,0,0,0,0,0,0,0,0,0,0,0,0,0,0,0,0,0,0,0,0,0,0,0,0,0,0,0,0,0,0,0,0,0,0,0,0,0,0,0,0,0,0,0,0,0,0,0,0,0,0,0,0,0,0,0,0,0,0,0,0,0,0,0,0,0,0,0,0,0,0,0,0,0,0,0,0,0,0,0,0,0,0,0,0,0,0,0,0,0,0,0,0,0,0,0,0,0,0,0,0,0,0,0,0,0,0,0,0,0,0,0,0,0,0,0,0,0,0,0,0,0],"trees":[{"base_weights":[-4.8956215E-1,-5.923034E-1,1.8231165E0,-9.524567E-1,2.4364462E-2,6.1380696E-1,2.2363467E0,-3.1897938E-1,-1.0794802E0,2.112487E-1,-9.1230416E-1,8.858302E-1,-0E0,-6.6815E-1,-2.1865534E-2,-1.3900785E0,-8.581175E-1,-0E0,9.717993E-1,1.6039664E-1,-1.3457333E0],"categories":[],"categories_nodes":[],"categories_segments":[],"categories_sizes":[],"default_left":[1,1,1,1,1,1,0,1,1,1,1,0,0,0,0,0,0,0,0,0,0],"id":0,"left_children":[1,3,5,7,9,11,-1,13,15,17,19,-1,-1,-1,-1,-1,-1,-1,-1,-1,-1],"loss_changes":[7.89693E1,7.216861E1,4.987629E0,1.5429718E1,2.0161896E1,8.471849E-1,0E0,3.1448677E0,1.0035141E1,1.5414595E1,9.669264E0,0E0,0E0,0E0,0E0,0E0,0E0,0E0,0E0,0E0,0E0],"parents":[2147483647,0,0,1,1,2,2,3,3,4,4,5,5,7,7,8,8,9,9,10,10],"right_children":[2,4,6,8,10,12,-1,14,16,18,20,-1,-1,-1,-1,-1,-1,-1,-1,-1,-1],"split_conditions":[2.229363E0,-1.8768379E-1,-2.066519E-1,-7.7173877E-1,4.1216072E-1,4.4945216E-1,6.7090404E-1,-2.2534904E-1,-3.6674535E-1,1.1955004E0,-3.8453013E-1,2.6574907E-1,-0E0,-2.0044501E-1,-6.55966E-3,-4.1702357E-1,-2.5743526E-1,-0E0,2.9153982E-1,4.8118994E-2,-4.0372E-1],"split_indices":[90,49,20,42,75,1,0,134,24,51,11,0,0,0,0,0,0,0,0,0,0],"split_type":[0,0,0,0,0,0,0,0,0,0,0,0,0,0,0,0,0,0,0,0,0],"sum_hessian":[3.36E2,3.22E2,1.4E1,2.04E2,1.18E2,4E0,1E1,3.5E1,1.69E2,9.9E1,1.9E1,3E0,1E0,1.5E1,2E1,6.9E1,1E2,7.8E1,2.1E1,5E0,1.4E1],"tree_param":{"num_deleted":"0","num_feature":"178","num_nodes":"21","size_leaf_vector":"0"}},{"base_weights":[-3.4828636E-1,-6.3058764E-1,1.7617151E-1,-3.848009E-1,-9.355996E-1,-5.2260112E-2,1.1842102E0,-8.732762E-2,-6.1847746E-1,-8.9394665E-1,-2.5405774E0,3.965667E-2,-9.9861795E-1,6.8579704E-1,1.7118062E0,-3.751885E-1,5.7035215E-2,-2.5796682E-1,-9.685552E-1,-0E0,-9.03693E-1,-9.673475E-2,6.718707E-1,-1.1804178E0,-9.989184E-3,-0E0,8.5494393E-1],"categories":[],"categories_nodes":[],"categories_segments":[],"categories_sizes":[],"default_left":[1,1,1,1,1,1,1,1,1,1,0,1,1,1,0,0,0,0,0,0,0,0,0,0,0,0,0],"id":1,"left_children":[1,3,5,7,9,11,13,15,17,19,-1,21,23,25,-1,-1,-1,-1,-1,-1,-1,-1,-1,-1,-1,-1,-1],"loss_changes":[4.977067E1,1.5412567E1,2.7508738E1,7.9832306E0,3.9971237E0,8.85242E0,4.095497E0,2.5097928E0,7.591608E0,8.302765E-1,0E0,7.734716E0,7.788944E-1,1.6655674E0,0E0,0E0,0E0,0E0,0E0,0E0,0E0,0E0,0E0,0E0,0E0,0E0,0E0],"parents":[2147483647,0,0,1,1,2,2,3,3,4,4,5,5,6,6,7,7,8,8,9,9,11,11,12,12,13,13],"right_children":[2,4,6,8,10,12,14,16,18,20,-1,22,24,26,-1,-1,-1,-1,-1,-1,-1,-1,-1,-1,-1,-1,-1],"split_conditions":[4.3915313E-1,2.1527514E-1,1.2710572E0,-1.8776539E-1,2.4635167E0,2.3895717E0,-2.066519E-1,-7.7592003E-1,2.1411106E-1,-1.2443744E0,-7.6217324E-1,1.0058592E-1,1.6478944E-1,1.9256419E-1,5.135419E-1,-1.12556554E-1,1.7110566E-2,-7.7390045E-2,-2.9056656E-1,-0E0,-2.711079E-1,-2.9020425E-2,2.0156123E-1,-3.5412535E-1,-2.9967555E-3,-0E0,2.564832E-1],"split_indices":[49,45,90,64,111,106,20,111,96,6,0,98,98,12,0,0,0,0,0,0,0,0,0,0,0,0,0],"split_type":[0,0,0,0,0,0,0,0,0,0,0,0,0,0,0,0,0,0,0,0,0,0,0,0,0,0,0],"sum_hessian":[3.34E2,2.18E2,1.16E2,1.22E2,9.6E1,9.4E1,2.2E1,5.5E1,6.7E1,9.4E1,2E0,8.5E1,9E0,1.2E1,1E1,2E1,3.5E1,3.4E1,3.3E1,1E0,9.3E1,6.9E1,1.6E1,7E0,2E0,2E0,1E1],"tree_param":{"num_deleted":"0","num_feature":"178","num_nodes":"27","size_leaf_vector":"0"}},{"base_weights":[-2.4473903E-1,-2.7757087E-1,1.2070261E0,-6.0240246E-2,-5.22784E-1,-1.138657E-1,1.1413844E0,-9.7289056E-1,-4.4641462E-1,-3.7352136E-1,5.2330945E-2,-1.355785E-1,-1.1284528E0,-2.2960602E-1,-6.6238755E-1],"categories":[],"categories_nodes":[],"categories_segments":[],"categories_sizes":[],"default_left":[1,1,0,1,1,1,0,1,1,0,0,0,0,0,0],"id":2,"left_children":[1,3,-1,5,7,9,-1,11,13,-1,-1,-1,-1,-1,-1],"loss_changes":[1.5455711E1,1.722897E1,0E0,1.0681548E1,4.2934875E0,7.562494E0,0E0,1.8446999E0,5.5991707E0,0E0,0E0,0E0,0E0,0E0,0E0],"parents":[2147483647,0,0,1,1,3,3,4,4,5,5,7,7,8,8],"right_children":[2,4,-1,6,8,10,-1,12,14,-1,-1,-1,-1,-1,-1],"split_conditions":[2.5990486E0,-3.0388286E-2,3.6210784E-1,2.650519E0,-9.706275E-1,-2.965942E-1,3.4241533E-1,-1.7344096E-1,5.075909E-1,-1.1205641E-1,1.5699284E-2,-4.067355E-2,-3.3853585E-1,-6.888181E-2,-1.9871627E-1],"split_indices":[6,20,0,92,95,135,0,73,23,0,0,0,0,0,0],"split_type":[0,0,0,0,0,0,0,0,0,0,0,0,0,0,0],"sum_hessian":[3.38E2,3.31E2,7E0,1.77E2,1.54E2,1.7E2,7E0,2.1E1,1.33E2,6.8E1,1.02E2,4E0,1.7E1,6.8E1,6.5E1],"tree_param":{"num_deleted":"0","num_feature":"178","num_nodes":"15","size_leaf_vector":"0"}},{"base_weights":[-1.7402965E-1,-3.8219935E-1,1.6730774E-2,-4.1262943E-1,6.3598174E-1,-7.340869E-2,5.749282E-1,-1.7461848E-1,-4.9907014E-1,-0E0,7.96699E-1,1.0164973E-1,-2.9892817E-1,7.539937E-1,-0E0,-4.4185176E-1,-0E0,-4.6950582E-1,-1.3480843E0,-1.1789715E-2,4.183446E-1,-3.9052224E-1,6.7756146E-1,6.0863996E-1,1.6369557E0],"categories":[],"categories_nodes":[],"categories_segments":[],"categories_sizes":[],"default_left":[1,1,1,1,1,1,1,1,1,0,0,1,1,1,0,0,0,0,0,0,0,0,0,0,0],"id":3,"left_children":[1,3,5,7,9,11,13,15,17,-1,-1,19,21,23,-1,-1,-1,-1,-1,-1,-1,-1,-1,-1,-1],"loss_changes":[1.34811325E1,4.8310375E0,9.007686E0,2.755394E0,2.863735E-1,5.942451E0,2.5381413E0,1.7821511E0,1.5554905E0,0E0,0E0,3.196451E0,5.700953E0,8.5597134E-1,0E0,0E0,0E0,0E0,0E0,0E0,0E0,0E0,0E0,0E0,0E0],"parents":[2147483647,0,0,1,1,2,2,3,3,4,4,5,5,6,6,7,7,8,8,11,11,12,12,13,13],"right_children":[2,4,6,8,10,12,14,16,18,-1,-1,20,22,24,-1,-1,-1,-1,-1,-1,-1,-1,-1,-1,-1],"split_conditions":[2.9227844E-1,2.163534E0,1.0583619E-1,-2.8813076E-1,5.2957577E-1,-6.6908205E-1,1.0330148E0,-2.1848339E-1,1.9593552E0,-0E0,2.3900971E-1,-6.803725E-1,2.5820303E-1,2.1596473E-1,-0E0,-1.3255553E-1,-0E0,-1.4085175E-1,-4.0442532E-1,-3.5369147E-3,1.2550338E-1,-1.1715668E-1,2.0326845E-1,1.8259199E-1,4.9108675E-1],"split_indices":[17,5,97,45,1,33,73,37,72,0,0,26,25,13,0,0,0,0,0,0,0,0,0,0,0],"split_type":[0,0,0,0,0,0,0,0,0,0,0,0,0,0,0,0,0,0,0,0,0,0,0,0,0],"sum_hessian":[3.33E2,1.61E2,1.72E2,1.57E2,4E0,1.47E2,2.5E1,4.4E1,1.13E2,1E0,3E0,8.1E1,6.6E1,1.9E1,6E0,1.6E1,2.8E1,1.1E2,3E0,5.8E1,2.3E1,6.1E1,5E0,1.7E1,2E0],"tree_param":{"num_deleted":"0","num_feature":"178","num_nodes":"25","size_leaf_vector":"0"}},{"base_weights":[-1.2153439E-1,-1.6861457E-1,4.2842132E-1,-3.8398784E-2,-3.769468E-1,1.3569292E-1,6.8681663E-1,-2.0077108E-1,1.6004455E-1,-3.918954E-1,6.3734E-1,3.113369E-1,-4.4298484E-3,-4.781963E-2,-3.6104244E-1,3.1507906E-1,-2.7097203E-2,-4.1414878E-1,4.9484856E-2,-4.02615E-2,-0E0],"categories":[],"categories_nodes":[],"categories_segments":[],"categories_sizes":[],"default_left":[1,1,1,1,1,1,0,1,1,1,0,0,1,0,0,0,0,0,0,1,1],"id":4,"left_children":[1,3,5,7,9,11,-1,13,15,17,-1,-1,-1,-1,-1,-1,-1,-1,-1,-1,-1],"loss_changes":[8.413122E0,8.035695E0,1.311449E0,6.1830616E0,1.5859604E0,5.362061E-1,0E0,2.33489E0,2.640051E0,1.3865032E0,0E0,0E0,6.3863667E-3,0E0,0E0,0E0,0E0,0E0,0E0,0E0,0E0],"parents":[2147483647,0,0,1,1,2,2,3,3,4,4,5,5,7,7,8,8,9,9,12,12],"right_children":[2,4,6,8,10,12,-1,14,16,18,-1,-1,-1,-1,-1,-1,-1,-1,-1,-1,-1],"split_conditions":[1.7467201E0,2.1581453E-1,2.8705364E-1,-9.9649414E-2,9.246778E0,3.142041E-2,2.06045E-1,-2.3980588E-1,2.5111254E-2,2.0186136E0,1.9120201E-1,9.3401074E-2,-1.3289546E-3,-1.4345889E-2,-1.0831273E-1,9.452372E-2,-8.129161E-3,-1.2424464E-1,1.4845458E-2,-1.207845E-2,-0E0],"split_indices":[90,58,53,143,144,47,0,86,47,16,0,0,3,0,0,0,0,0,0,2147483647,2147483647],"split_type":[0,0,0,0,0,0,0,0,0,0,0,0,0,0,0,0,0,0,0,0,0],"sum_hessian":[3.32E2,3.07E2,2.5E1,1.91E2,1.16E2,1.3E1,1.2E1,1.07E2,8.4E1,1.15E2,1E0,8E0,5E0,5.7E1,5E1,4.8E1,3.6E1,1.11E2,4E0,4E0,1E0],"tree_param":{"num_deleted":"2","num_feature":"178","num_nodes":"21","size_leaf_vector":"0"}},{"base_weights":[-9.434652E-2,-1.9921842E-1,6.0801536E-2,-8.9126326E-2,-2.9618353E-1,-3.805615E-2,3.0578738E-1,6.589622E-2,-2.284886E-1,-3.4073192E-1,-7.1290974E-3,6.0992584E-2,-2.896151E-1,-1.15436666E-1,3.7216258E-1,1.7050257E-1,-8.937007E-2,-0E0,-3.0081728E-1,-7.501201E-1,-2.851709E-1,1.3118654E-2,-2.4400252E-1,1.3268586E-1,-3.5277435E-1,-0E0,-3.3784026E-1,4.442113E-1,-0E0],"categories":[],"categories_nodes":[],"categories_segments":[],"categories_sizes":[],"default_left":[1,1,1,1,1,1,1,1,1,1,1,1,1,0,1,0,0,0,0,0,0,0,0,0,0,0,0,0,0],"id":5,"left_children":[1,3,5,7,9,11,13,15,17,19,21,23,25,-1,27,-1,-1,-1,-1,-1,-1,-1,-1,-1,-1,-1,-1,-1,-1],"loss_changes":[5.5319414E0,1.8848772E0,3.3855267E0,2.2317948E0,1.094101E0,2.4534273E0,1.2992647E0,7.718169E-1,9.814565E-1,1.2721252E0,2.3942071E-1,1.7434677E0,5.048578E-1,0E0,9.3355083E-1,0E0,0E0,0E0,0E0,0E0,0E0,0E0,0E0,0E0,0E0,0E0,0E0,0E0,0E0],"parents":[2147483647,0,0,1,1,2,2,3,3,4,4,5,5,6,6,7,7,8,8,9,9,10,10,11,11,12,12,14,14],"right_children":[2,4,6,8,10,12,14,16,18,20,22,24,26,-1,28,-1,-1,-1,-1,-1,-1,-1,-1,-1,-1,-1,-1,-1,-1],"split_conditions":[-1.8768379E-1,-4.0685147E-1,-1.3625142E-1,1.5566483E-1,6.832558E-1,1.2487228E-1,-5.580623E-1,8.4862626E-1,2.0033185E-1,-6.356248E-1,-3.1860005E-2,1.6218348E0,-6.2849844E-1,-3.4631003E-2,4.923267E-1,5.1150773E-2,-2.6811022E-2,-0E0,-9.024519E-2,-2.2503604E-1,-8.555128E-2,3.9355964E-3,-7.320076E-2,3.980576E-2,-1.0583231E-1,-0E0,-1.0135208E-1,1.332634E-1,-0E0],"split_indices":[49,81,119,34,15,58,22,19,96,56,20,145,84,0,14,0,0,0,0,0,0,0,0,0,0,0,0,0,0],"split_type":[0,0,0,0,0,0,0,0,0,0,0,0,0,0,0,0,0,0,0,0,0,0,0,0,0,0,0,0,0],"sum_hessian":[3.34E2,2.02E2,1.32E2,9.8E1,1.04E2,9.2E1,4E1,4.4E1,5.4E1,8.8E1,1.6E1,6.4E1,2.8E1,4E0,3.6E1,2.9E1,1.5E1,1.2E1,4.2E1,9E0,7.9E1,1.2E1,4E0,5.6E1,8E0,3E0,2.5E1,3E1,6E0],"tree_param":{"num_deleted":"0","num_feature":"178","num_nodes":"29","size_leaf_vector":"0"}},{"base_weights":[-6.268754E-2,-1.2802127E-1,3.5675474E-2,-1.7306273E-1,-4.620161E-3,-2.817518E-4,2.9655105E-1,-1.4934193E-1,-7.010254E-1,2.0112327E-1,-1.7662576E-1,-9.0284206E-2,1.256615E-1,-0E0,3.1524912E-1,-4.1654557E-2,-2.1610382E-1,-7.9540884E-1,-0E0,1.2617144E-1,7.1066636E-1,-1.9992019E-1,-0E0,2.2856636E-1,-1.5740755E-1,-0E0,3.0222207E-1,3.3009723E-1,-0E0],"categories":[],"categories_nodes":[],"categories_segments":[],"categories_sizes":[],"default_left":[1,1,1,1,1,1,1,1,1,1,1,1,1,1,1,0,0,1,1,0,0,0,0,0,0,0,0,1,1],"id":6,"left_children":[1,3,5,7,9,11,-1,15,-1,19,21,23,25,-1,-1,-1,-1,-1,-1,-1,-1,-1,-1,-1,-1,-1,-1,-1,-1],"loss_changes":[2.211495E0,1.0142314E0,1.4188197E0,1.2292647E0,2.070715E0,1.2332883E0,1.06532335E-1,8.3209157E-1,7.356429E-2,3.651309E-1,2.5826335E-1,1.4052384E0,1.0564455E0,0E0,5.3936005E-2,0E0,0E0,0E0,0E0,0E0,0E0,0E0,0E0,0E0,0E0,0E0,0E0,0E0,0E0],"parents":[2147483647,0,0,1,1,2,2,3,3,4,4,5,5,6,6,7,7,8,8,9,9,10,10,11,11,12,12,14,14],"right_children":[2,4,6,8,10,12,-1,16,-1,20,22,24,26,-1,-1,-1,-1,-1,-1,-1,-1,-1,-1,-1,-1,-1,-1,-1,-1],"split_conditions":[-1.8768379E-1,1.2542188E-1,1.2618161E0,3.0410664E0,4.6128678E-1,6.827794E-1,8.896532E-2,-5.126069E-1,-2.1030764E-1,3.3156294E-1,2.105062E0,-5.5488265E-1,1.958204E-1,-0E0,9.457474E-2,-1.2496368E-2,-6.483115E-2,-2.3862267E-1,-0E0,3.7851434E-2,2.1319991E-1,-5.997606E-2,-0E0,6.856991E-2,-4.7222268E-2,-0E0,9.066662E-2,9.9029176E-2,-0E0],"split_indices":[49,145,60,64,37,17,10,76,4,37,6,148,93,2147483647,2147483647,0,0,2147483647,2147483647,0,0,0,0,0,0,0,0,2147483647,2147483647],"split_type":[0,0,0,0,0,0,0,0,0,0,0,0,0,0,0,0,0,0,0,0,0,0,0,0,0,0,0,0,0],"sum_hessian":[3.34E2,2.05E2,1.29E2,1.46E2,5.9E1,1.11E2,1.8E1,1.41E2,5E0,2.5E1,3.4E1,6.8E1,4.3E1,1E0,1.7E1,5.8E1,8.3E1,4E0,1E0,2.3E1,2E0,3.3E1,1E0,1E1,5.8E1,2.4E1,1.9E1,1.6E1,1E0],"tree_param":{"num_deleted":"6","num_feature":"178","num_nodes":"29","size_leaf_vector":"0"}},{"base_weights":[-4.6747267E-2,-7.055706E-2,1.4261462E-1,-3.891171E-1,-5.367205E-2,-6.242812E-2,2.7131215E-1,-6.119049E-1,-1.1752495E-2,-1.303884E-1,-5.47187E-4,-0E0,-2.0627034E-1,8.047667E-1,1.8694343E-1,-0E0,-7.441718E-1,-0E0,-5.3017978E-2,6.992362E-2,-1.8159318E-1,1.082504E-1,-5.492473E-2,-0E0,9.251326E-3,2.043686E-1,-0E0],"categories":[],"categories_nodes":[],"categories_segments":[],"categories_sizes":[],"default_left":[1,1,1,1,1,1,1,1,1,1,1,1,0,0,1,0,0,1,1,0,0,0,0,1,1,1,1],"id":7,"left_children":[1,3,5,7,9,11,13,15,-1,19,21,-1,-1,-1,-1,-1,-1,-1,-1,-1,-1,-1,-1,-1,-1,-1,-1],"loss_changes":[1.4551284E0,1.301675E0,1.0444016E0,6.5353847E-1,1.0774263E0,2.1242756E-1,3.3636916E-1,7.018163E-1,1.3226688E-2,1.2274662E0,9.977564E-1,2.5678953E-4,0E0,0E0,5.9661508E-2,0E0,0E0,0E0,0E0,0E0,0E0,0E0,0E0,0E0,0E0,0E0,0E0],"parents":[2147483647,0,0,1,1,2,2,3,3,4,4,5,5,6,6,7,7,8,8,9,9,10,10,11,11,14,14],"right_children":[2,4,6,8,10,12,14,16,-1,20,22,-1,-1,-1,-1,-1,-1,-1,-1,-1,-1,-1,-1,-1,-1,-1,-1],"split_conditions":[1.2618161E0,-5.1386577E-1,-1.2026284E-1,2.856127E-1,-9.587011E-2,4.2742863E-1,6.469331E-1,-1.7341242E0,-3.5257486E-3,-7.353461E-1,5.231943E-1,-0E0,-6.1881103E-2,2.4143003E-1,5.608303E-2,-0E0,-2.2325155E-1,-0E0,-1.5905393E-2,2.0977085E-2,-5.4477956E-2,3.247512E-2,-1.6477419E-2,-0E0,2.775398E-3,6.1310586E-2,-0E0],"split_indices":[60,98,93,53,15,96,71,15,7,66,15,4,0,0,71,0,0,2147483647,2147483647,0,0,0,0,2147483647,2147483647,2147483647,2147483647],"split_type":[0,0,0,0,0,0,0,0,0,0,0,0,0,0,0,0,0,0,0,0,0,0,0,0,0,0,0],"sum_hessian":[3.34E2,3E2,3.4E1,1.3E1,2.87E2,1.1E1,2.3E1,7E0,6E0,1.12E2,1.75E2,5E0,6E0,2E0,2.1E1,1E0,6E0,1E0,5E0,2E1,9.2E1,5.4E1,1.21E2,2E0,3E0,1.9E1,2E0],"tree_param":{"num_deleted":"6","num_feature":"178","num_nodes":"27","size_leaf_vector":"0"}},{"base_weights":[-3.2018255E-2,-2.0290472E-2,-4.8087004E-1,-1.3170928E-1,5.6118304E-3,-5.4164106E-1,-0E0,-2.0794457E-2,-1.8485968E-1,4.101435E-2,-1.2312861E-1,-1.1562514E-1,1.9838532E-2,-2.2498423E-1,-0E0,-1.1568339E-1,7.332481E-2,-2.2973263E-1,5.4904513E-2],"categories":[],"categories_nodes":[],"categories_segments":[],"categories_sizes":[],"default_left":[1,1,1,1,1,0,0,1,1,1,1,0,0,0,0,0,0,0,0],"id":8,"left_children":[1,3,5,7,9,-1,-1,11,13,15,17,-1,-1,-1,-1,-1,-1,-1,-1],"loss_changes":[1.4103357E0,1.0354581E0,1.4161885E-1,2.500739E-1,1.1317149E0,0E0,0E0,1.6767739E-1,3.1991696E-1,1.0283206E0,1.1101041E0,0E0,0E0,0E0,0E0,0E0,0E0,0E0,0E0],"parents":[2147483647,0,0,1,1,2,2,3,3,4,4,7,7,8,8,9,9,10,10],"right_children":[2,4,6,8,10,-1,-1,12,14,16,18,-1,-1,-1,-1,-1,-1,-1,-1],"split_conditions":[3.4027553E0,-8.671042E-1,8.632188E-1,-4.3971997E-1,9.615702E-1,-1.6249232E-1,-0E0,-4.3574512E-1,1.3813115E0,-8.955051E-1,3.4149164E-1,-3.4687545E-2,5.95156E-3,-6.749527E-2,-0E0,-3.470502E-2,2.1997442E-2,-6.891979E-2,1.6471354E-2],"split_indices":[105,22,15,76,175,0,0,91,87,95,119,0,0,0,0,0,0,0,0],"split_type":[0,0,0,0,0,0,0,0,0,0,0,0,0,0,0,0,0,0,0],"sum_hessian":[3.35E2,3.28E2,7E0,6.7E1,2.61E2,6E0,1E0,2.6E1,4.1E1,2.09E2,5.2E1,1.3E1,1.3E1,3.4E1,7E0,3.2E1,1.77E2,3.5E1,1.7E1],"tree_param":{"num_deleted":"0","num_feature":"178","num_nodes":"19","size_leaf_vector":"0"}},{"base_weights":[-2.2917628E-2,-7.031238E-2,3.6040645E-2,-1.09989814E-1,3.5694107E-2,-1.5362093E-3,1.6834208E-1,-2.1647578E-2,-1.721827E-1,-6.8029195E-2,1.0957429E-1,8.3980896E-2,-6.2202193E-2,2.4228495E-1,-0E0,-0E0,-2.655E-1,-3.5229313E-1,-1.1700638E-1,-0E0,-8.5374944E-2,-4.380911E-2,1.8070507E-1,1.3215825E-1,-0E0,-9.393665E-2,2.693807E-1,-0E0,2.6358864E-1],"categories":[],"categories_nodes":[],"categories_segments":[],"categories_sizes":[],"default_left":[1,1,1,1,1,1,1,1,1,1,1,1,1,1,0,0,0,0,0,1,1,0,0,0,0,0,0,0,0],"id":9,"left_children":[1,3,5,7,9,11,13,15,17,-1,21,23,25,27,-1,-1,-1,-1,-1,-1,-1,-1,-1,-1,-1,-1,-1,-1,-1],"loss_changes":[9.686272E-1,8.683278E-1,8.334243E-1,6.6559076E-1,3.9710608E-1,5.449601E-1,5.647578E-1,4.6299487E-1,4.7428775E-1,3.5286553E-2,4.4559148E-1,2.2440004E-1,5.919318E-1,1.5202403E-1,0E0,0E0,0E0,0E0,0E0,0E0,0E0,0E0,0E0,0E0,0E0,0E0,0E0,0E0,0E0],"parents":[2147483647,0,0,1,1,2,2,3,3,4,4,5,5,6,6,7,7,8,8,9,9,10,10,11,11,12,12,13,13],"right_children":[2,4,6,8,10,12,14,16,18,-1,22,24,26,28,-1,-1,-1,-1,-1,-1,-1,-1,-1,-1,-1,-1,-1,-1,-1],"split_conditions":[-9.9649414E-2,1.9328901E-1,6.8277955E-1,1.2516458E-1,-6.139699E-1,-9.4409174E-1,5.257747E-1,9.6778786E-1,-6.415336E-1,-2.0408759E-2,1.2267108E-1,4.9633121E-1,1.6305077E0,-1.4592857E0,-0E0,-0E0,-7.965001E-2,-1.05687946E-1,-3.5101913E-2,-0E0,-2.5612485E-2,-1.3142733E-2,5.4211523E-2,3.9647475E-2,-0E0,-2.8180996E-2,8.081421E-2,-0E0,7.9076596E-2],"split_indices":[143,69,17,39,3,25,139,43,89,0,22,58,71,23,0,0,0,0,0,2147483647,2147483647,0,0,0,0,0,0,0,0],"split_type":[0,0,0,0,0,0,0,0,0,0,0,0,0,0,0,0,0,0,0,0,0,0,0,0,0,0,0,0,0],"sum_hessian":[3.38E2,1.94E2,1.44E2,1.46E2,4.8E1,1.08E2,3.6E1,6.5E1,8.1E1,1.6E1,3.2E1,4E1,6.8E1,2.7E1,9E0,5.8E1,7E0,1.6E1,6.5E1,1E0,1.5E1,7E0,2.5E1,2.9E1,1.1E1,6.4E1,4E0,2E0,2.5E1],"tree_param":{"num_deleted":"2","num_feature":"178","num_nodes":"29","size_leaf_vector":"0"}},{"base_weights":[-1.3887954E-2,4.7690395E-2,-4.7974836E-2,9.114524E-2,-2.4475701E-2,-6.096198E-2,1.216632E-1,1.0710414E-1,-6.2317904E-2,-7.4892126E-2,3.614798E-2,-2.5484802E-2,-1.6387352E-1,4.959861E-1,-0E0,8.171045E-3,1.7968404E-1,-9.747075E-2,-0E0,-8.341613E-2,-0E0,6.351753E-2,-0E0,-1.2441716E-3,-2.4911436E-1,-0E0,-1.815626E-1,-0E0,6.6279876E-1,-5.7021435E-2,1.046629E-1],"categories":[],"categories_nodes":[],"categories_segments":[],"categories_sizes":[],"default_left":[1,1,1,1,1,1,1,1,1,1,1,1,1,1,1,0,0,1,1,1,1,1,1,0,0,0,0,0,0,1,1],"id":10,"left_children":[1,3,5,7,9,11,13,15,-1,-1,-1,23,25,27,-1,-1,-1,-1,-1,-1,-1,-1,-1,-1,-1,-1,-1,-1,-1,-1,-1],"loss_changes":[7.033715E-1,3.9820504E-1,4.485277E-1,2.17691E-1,1.3733229E-1,6.369423E-1,5.6046015E-1,3.9182073E-1,7.352393E-3,2.8127104E-2,1.5175478E-2,7.017896E-1,2.0051897E-1,1.4066184E-1,5.2376345E-2,0E0,0E0,0E0,0E0,0E0,0E0,0E0,0E0,0E0,0E0,0E0,0E0,0E0,0E0,0E0,0E0],"parents":[2147483647,0,0,1,1,2,2,3,3,4,4,5,5,6,6,7,7,8,8,9,9,10,10,11,11,12,12,13,13,14,14],"right_children":[2,4,6,8,10,12,14,16,-1,-1,-1,24,26,28,-1,-1,-1,-1,-1,-1,-1,-1,-1,-1,-1,-1,-1,-1,-1,-1,-1],"split_conditions":[-4.5335522E-1,-5.2303976E-1,2.6578212E0,2.3895717E0,2.0743027E-1,7.7505565E-1,-5.295594E-1,-3.9511442E-1,-1.8695371E-2,-2.246764E-2,1.0844394E-2,1.3920418E0,-5.849854E-1,-6.968467E-1,-0E0,2.4513137E-3,5.3905215E-2,-2.9241227E-2,-0E0,-2.5024839E-2,-0E0,1.905526E-2,-0E0,-3.732515E-4,-7.4734315E-2,-0E0,-5.4468784E-2,-0E0,1.9883963E-1,-1.710643E-2,3.1398874E-2],"split_indices":[94,67,83,106,26,73,65,22,3,84,119,142,113,19,44,0,0,2147483647,2147483647,2147483647,2147483647,2147483647,2147483647,0,0,0,0,0,0,2147483647,2147483647],"split_type":[0,0,0,0,0,0,0,0,0,0,0,0,0,0,0,0,0,0,0,0,0,0,0,0,0,0,0,0,0,0,0],"sum_hessian":[3.35E2,1.12E2,2.23E2,7.6E1,3.6E1,2.11E2,1.2E1,7.3E1,3E0,2.6E1,1E1,1.62E2,4.9E1,3E0,9E0,3.5E1,3.8E1,2E0,1E0,2.5E1,1E0,7E0,3E0,1.49E2,1.3E1,3E0,4.6E1,1E0,2E0,6E0,3E0],"tree_param":{"num_deleted":"8","num_feature":"178","num_nodes":"31","size_leaf_vector":"0"}},{"base_weights":[-7.6709124E-3,4.605327E-2,-3.0282255E-2,8.130408E-3,2.1646914E-1,1.2927728E-2,-7.070954E-2,5.18796E-2,-3.692357E-2,2.904406E-1,-0E0,-5.984335E-3,1.1005282E-1,-1.1659569E-1,-3.4933782E-3,1.6758902E-1,-0E0,-9.017984E-2,-0E0,-0E0,4.0092382E-1,-9.070874E-2,3.3474673E-2,-0E0,1.5537667E-1,-9.163851E-2,-4.7233456E-1,2.5930402E-3,-1.510953E-1],"categories":[],"categories_nodes":[],"categories_segments":[],"categories_sizes":[],"default_left":[1,1,1,1,1,1,1,1,1,1,0,1,1,1,1,0,0,1,1,0,0,0,0,0,0,0,0,0,0],"id":11,"left_children":[1,3,5,7,9,11,13,15,-1,19,-1,21,23,25,27,-1,-1,-1,-1,-1,-1,-1,-1,-1,-1,-1,-1,-1,-1],"loss_changes":[3.9583865E-1,4.23389E-1,4.6869493E-1,1.62312E-1,2.344042E-1,2.7537888E-1,3.3176607E-1,2.1054125E-1,1.0548501E-1,2.8164732E-1,0E0,3.2783905E-1,1.9216332E-1,2.5960577E-1,1.5943475E-1,0E0,0E0,0E0,0E0,0E0,0E0,0E0,0E0,0E0,0E0,0E0,0E0,0E0,0E0],"parents":[2147483647,0,0,1,1,2,2,3,3,4,4,5,5,6,6,7,7,8,8,9,9,11,11,12,12,13,13,14,14],"right_children":[2,4,6,8,10,12,14,16,-1,20,-1,22,24,26,28,-1,-1,-1,-1,-1,-1,-1,-1,-1,-1,-1,-1,-1,-1],"split_conditions":[-5.884968E-1,-3.7860042E-1,-3.1823474E-1,1.6878688E-1,2.2915435E0,6.238378E-1,5.4996157E-1,-8.0984914E-1,-1.1077071E-2,-1.0641146E-1,-0E0,-7.9664594E-1,-3.0400163E-1,1.686812E0,6.7853785E-1,5.0276708E-2,-0E0,-2.7053952E-2,-0E0,-0E0,1.2027715E-1,-2.7212624E-2,1.0042402E-2,-0E0,4.6613004E-2,-2.7491555E-2,-1.4170037E-1,7.779121E-4,-4.532859E-2],"split_indices":[94,54,58,2,90,79,100,46,8,16,0,16,93,39,23,0,0,2147483647,2147483647,0,0,0,0,0,0,0,0,0,0],"split_type":[0,0,0,0,0,0,0,0,0,0,0,0,0,0,0,0,0,0,0,0,0,0,0,0,0,0,0,0,0],"sum_hessian":[3.35E2,9E1,2.45E2,7.7E1,1.3E1,1.1E2,1.35E2,4.7E1,3E1,1E1,3E0,8.6E1,2.4E1,7.4E1,6.1E1,1.2E1,3.5E1,1.8E1,1.2E1,3E0,7E0,3.3E1,5.3E1,4E0,2E1,7.1E1,3E0,5.4E1,7E0],"tree_param":{"num_deleted":"2","num_feature":"178","num_nodes":"29","size_leaf_vector":"0"}},{"base_weights":[-3.2538008E-3,5.650771E-3,-7.567601E-2,-5.196132E-2,2.7057305E-2,-1.5636341E-1,3.1576708E-2,-9.231651E-2,-0E0,-1.811391E-3,1.3098766E-1,-1.9535594E-1,-0E0,-0E0,8.904472E-2,-0E0,-1.4005174E-1,-5.6633383E-2,5.2986324E-2,-5.4177094E-2,2.8626768E-2,-0E0,1.7191577E-1,-0E0,-2.5336653E-1,1.2183224E-1,-0E0],"categories":[],"categories_nodes":[],"categories_segments":[],"categories_sizes":[],"default_left":[1,1,1,1,1,1,1,1,1,1,1,1,0,1,1,0,0,1,1,0,0,0,0,0,0,1,1],"id":12,"left_children":[1,3,5,7,9,11,-1,15,-1,19,21,23,-1,-1,-1,-1,-1,-1,-1,-1,-1,-1,-1,-1,-1,-1,-1],"loss_changes":[2.6924682E-1,3.4626982E-1,4.8600993E-1,2.0033093E-1,7.6309276E-1,2.587816E-1,5.5409547E-2,1.5718183E-1,7.2989285E-2,2.8896934E-1,3.147961E-1,1.6324884E-1,0E0,0E0,3.2543294E-2,0E0,0E0,0E0,0E0,0E0,0E0,0E0,0E0,0E0,0E0,0E0,0E0],"parents":[2147483647,0,0,1,1,2,2,3,3,4,4,5,5,6,6,7,7,8,8,9,9,10,10,11,11,14,14],"right_children":[2,4,6,8,10,12,-1,16,-1,20,22,24,-1,-1,-1,-1,-1,-1,-1,-1,-1,-1,-1,-1,-1,-1,-1],"split_conditions":[1.0397062E0,-6.68543E-1,1.2291923E0,1.843991E-1,7.7348305E-3,1.5534836E0,9.473013E-3,-8.0287975E-1,-0E0,4.0421803E-2,-8.081027E-1,-6.745495E-1,-0E0,-0E0,2.6713418E-2,-0E0,-4.2015523E-2,-1.6990015E-2,1.5895898E-2,-1.6253129E-2,8.588031E-3,-0E0,5.1574733E-2,-0E0,-7.600996E-2,3.6549672E-2,-0E0],"split_indices":[43,19,60,43,31,69,42,16,0,25,23,81,0,2147483647,2147483647,0,0,2147483647,2147483647,0,0,0,0,0,0,2147483647,2147483647],"split_type":[0,0,0,0,0,0,0,0,0,0,0,0,0,0,0,0,0,0,0,0,0,0,0,0,0,0,0],"sum_hessian":[3.41E2,2.95E2,4.6E1,7.1E1,2.24E2,3E1,1.6E1,4.6E1,2.5E1,1.7E2,5.4E1,2.6E1,4E0,7E0,9E0,1.8E1,2.8E1,7E0,1.8E1,7.1E1,9.9E1,1.2E1,4.2E1,8E0,1.8E1,7E0,2E0],"tree_param":{"num_deleted":"6","num_feature":"178","num_nodes":"27","size_leaf_vector":"0"}},{"base_weights":[-6.310546E-3,-9.7309925E-2,-0E0,-1.577063E-1,1.543888E-2,2.0263651E-2,-4.2590167E-2,-0E0,-2.0001633E-1,2.7509673E-2,-0E0,-3.6673338E-4,5.8952175E-2,2.1586295E-2,-9.151535E-2,-2.5827205E-1,-0E0,-7.1970515E-2,1.4214455E-2,9.233907E-2,-0E0,1.12046115E-1,-1.2746764E-2,-1.3776861E-1,-0E0],"categories":[],"categories_nodes":[],"categories_segments":[],"categories_sizes":[],"default_left":[1,1,1,1,1,1,1,0,1,1,1,1,1,1,1,0,0,0,0,0,0,0,0,0,0],"id":13,"left_children":[1,3,5,7,-1,11,13,-1,15,-1,-1,17,19,21,23,-1,-1,-1,-1,-1,-1,-1,-1,-1,-1],"loss_changes":[2.3286219E-1,2.772941E-1,2.573885E-1,1.5781921E-1,1.8355052E-3,2.1368167E-1,3.412789E-1,0E0,1.870557E-1,0E0,0E0,1.7538013E-1,2.092357E-1,1.7556325E-1,3.220233E-1,0E0,0E0,0E0,0E0,0E0,0E0,0E0,0E0,0E0,0E0],"parents":[2147483647,0,0,1,1,2,2,3,3,4,4,5,5,6,6,8,8,11,11,12,12,13,13,14,14],"right_children":[2,4,6,8,-1,12,14,-1,16,-1,-1,18,20,22,24,-1,-1,-1,-1,-1,-1,-1,-1,-1,-1],"split_conditions":[-1.131963E0,3.2526813E-2,5.305835E-1,-1.4834193E0,4.631664E-3,-4.0987223E-1,-2.0355177E-1,-0E0,5.1417434E-1,8.252902E-3,-0E0,-4.8656967E-1,3.1382093E-1,-2.785623E-1,1.4699593E0,-7.748162E-2,-0E0,-2.1591155E-2,4.2643365E-3,2.7701722E-2,-0E0,3.3613835E-2,-3.8240294E-3,-4.1330583E-2,-0E0],"split_indices":[95,96,23,55,0,99,85,0,0,2147483647,2147483647,89,95,0,66,0,0,0,0,0,0,0,0,0,0],"split_type":[0,0,0,0,0,0,0,0,0,0,0,0,0,0,0,0,0,0,0,0,0,0,0,0,0],"sum_hessian":[3.35E2,2.6E1,3.09E2,2.1E1,5E0,2.16E2,9.3E1,4E0,1.7E1,4E0,1E0,1.29E2,8.7E1,3.4E1,5.9E1,1.3E1,4E0,3E1,9.9E1,6E1,2.7E1,1.5E1,1.9E1,4.3E1,1.6E1],"tree_param":{"num_deleted":"2","num_feature":"178","num_nodes":"25","size_leaf_vector":"0"}},{"base_weights":[-2.741643E-3,-0E0,-9.2690885E-2,5.7802532E-2,-9.622033E-3,-1.8273693E-1,-0E0,4.6780252E-1,2.8480604E-2,2.1485124E-2,-3.228193E-2,-3.0136898E-1,-0E0,-0E0,1.6868132E-1,-0E0,1.2481564E-1,-5.1852193E-2,-0E0],"categories":[],"categories_nodes":[],"categories_segments":[],"categories_sizes":[],"default_left":[1,1,1,1,1,1,0,0,1,1,1,1,1,0,0,0,0,0,0],"id":14,"left_children":[1,3,5,7,9,-1,-1,-1,13,15,17,-1,-1,-1,-1,-1,-1,-1,-1],"loss_changes":[1.3494287E-1,2.0504953E-1,1.296849E-1,2.9950848E-1,1.9510727E-1,9.616977E-2,0E0,0E0,2.4236351E-1,2.0356867E-1,1.2709482E-1,0E0,0E0,0E0,0E0,0E0,0E0,0E0,0E0],"parents":[2147483647,0,0,1,1,2,2,3,3,4,4,5,5,8,8,9,9,10,10],"right_children":[2,4,6,8,10,-1,-1,-1,14,16,18,-1,-1,-1,-1,-1,-1,-1,-1],"split_conditions":[1.8116648E0,-6.807854E-1,-8.36558E-1,-8.533362E-1,-2.104518E-1,-5.482108E-2,-0E0,1.4034076E-1,3.8202354E-1,1.1906135E0,8.5388285E-1,-9.0410694E-2,-0E0,-0E0,5.06044E-2,-0E0,3.7444696E-2,-1.5555658E-2,-0E0],"split_indices":[59,96,22,2,85,167,0,0,24,21,85,2147483647,2147483647,0,0,0,0,0,0],"split_type":[0,0,0,0,0,0,0,0,0,0,0,0,0,0,0,0,0,0,0],"sum_hessian":[3.36E2,3.2E2,1.6E1,5.4E1,2.66E2,8E0,8E0,2E0,5.2E1,9.9E1,1.67E2,4E0,4E0,4.2E1,1E1,8.3E1,1.6E1,1.12E2,5.5E1],"tree_param":{"num_deleted":"2","num_feature":"178","num_nodes":"19","size_leaf_vector":"0"}},{"base_weights":[-0E0,-3.3539318E-2,1.4842547E-2,-7.906009E-3,-1.2006623E-1,-0E0,9.260128E-2,6.4117904E-3,-1.3123801E-1,-0E0,-1.516067E-1,5.4980766E-2,-1.4072536E-2,3.9429378E-2,4.780281E-1,-0E0,1.6364598E-1,-1.6131054E-1,-0E0,-1.5727165E-1,-0E0,1.0718836E-1,-2.0094926E-2,-4.8777606E-2,5.2683116E-3,7.6228164E-2,-0E0,-0E0,6.3516665E-1],"categories":[],"categories_nodes":[],"categories_segments":[],"categories_sizes":[],"default_left":[1,1,1,1,1,1,1,1,1,1,1,1,1,1,1,0,0,1,1,1,1,0,0,0,0,1,1,0,0],"id":15,"left_children":[1,3,5,7,-1,11,13,15,-1,-1,-1,21,23,-1,27,-1,-1,-1,-1,-1,-1,-1,-1,-1,-1,-1,-1,-1,-1],"loss_changes":[1.776083E-1,1.6489851E-1,2.7760667E-1,2.5570786E-1,5.6453675E-2,1.2906563E-1,4.1416985E-1,1.5740004E-1,7.9925835E-2,0E0,1.5129745E-3,1.9071178E-1,1.2999812E-1,1.0247756E-1,1.2139881E-1,0E0,0E0,0E0,0E0,0E0,0E0,0E0,0E0,0E0,0E0,0E0,0E0,0E0,0E0],"parents":[2147483647,0,0,1,1,2,2,3,3,4,4,5,5,6,6,7,7,8,8,10,10,11,11,12,12,13,13,14,14],"right_children":[2,4,6,8,-1,12,14,16,-1,-1,-1,22,24,-1,28,-1,-1,-1,-1,-1,-1,-1,-1,-1,-1,-1,-1,-1,-1],"split_conditions":[-2.6969892E-1,1.0967329E0,5.383581E-1,-4.6918792E-1,-3.6019873E-2,-5.5488265E-1,1.5902505E0,1.7905886E0,-3.9371405E-2,-0E0,-4.548201E-2,-1.097167E-1,-1.6461742E-1,1.1828814E-2,-1.909322E-1,-0E0,4.9093798E-2,-4.8393164E-2,-0E0,-4.71815E-2,-0E0,3.215651E-2,-6.028478E-3,-1.4633282E-2,1.5804935E-3,2.286845E-2,-0E0,-0E0,1.9055E-1],"split_indices":[15,98,24,14,21,148,148,168,168,2147483647,2147483647,46,46,29,3,0,0,2147483647,2147483647,2147483647,2147483647,0,0,0,0,2147483647,2147483647,0,0],"split_type":[0,0,0,0,0,0,0,0,0,0,0,0,0,0,0,0,0,0,0,0,0,0,0,0,0,0,0,0,0],"sum_hessian":[3.34E2,1.15E2,2.19E2,9.5E1,2E1,1.81E2,3.8E1,8E1,1.5E1,5E0,1.5E1,3.3E1,1.48E2,3.5E1,3E0,7.4E1,6E0,1.3E1,2E0,1.4E1,1E0,2.5E1,8E0,6.6E1,8.2E1,2.7E1,8E0,1E0,2E0],"tree_param":{"num_deleted":"8","num_feature":"178","num_nodes":"29","size_leaf_vector":"0"}},{"base_weights":[-1.7861476E-3,-2.3504965E-2,1.3954866E-2,-1.00835904E-1,-3.964999E-3,3.962817E-2,-1.1223984E-2,-1.6194843E-1,-0E0,6.6803224E-2,-2.3978375E-2,6.344033E-2,-1.9612154E-3,4.092014E-2,-3.600335E-2,-1.908135E-1,-0E0,2.2101352E-1,-0E0,-0E0,-6.4587384E-2,2.0898588E-2,1.5900953E-1,4.099465E-3,-1.395886E-1,8.396502E-2,-0E0,-0E0,-5.569863E-2],"categories":[],"categories_nodes":[],"categories_segments":[],"categories_sizes":[],"default_left":[1,1,1,1,1,1,1,1,0,1,1,1,1,1,1,0,0,0,0,0,0,0,0,0,0,1,1,1,1],"id":16,"left_children":[1,3,5,7,9,11,-1,15,-1,17,19,21,23,-1,-1,-1,-1,-1,-1,-1,-1,-1,-1,-1,-1,-1,-1,-1,-1],"loss_changes":[1.2159956E-1,1.679252E-1,1.337845E-1,1.6544506E-1,1.6102882E-1,1.4334188E-1,9.344395E-2,1.2651351E-1,0E0,2.4376476E-1,1.4777848E-1,1.7816389E-1,1.1715241E-1,4.5386165E-2,3.391026E-2,0E0,0E0,0E0,0E0,0E0,0E0,0E0,0E0,0E0,0E0,0E0,0E0,0E0,0E0],"parents":[2147483647,0,0,1,1,2,2,3,3,4,4,5,5,6,6,7,7,9,9,10,10,11,11,12,12,13,13,14,14],"right_children":[2,4,6,8,10,12,-1,16,-1,18,20,22,24,-1,-1,-1,-1,-1,-1,-1,-1,-1,-1,-1,-1,-1,-1,-1,-1],"split_conditions":[1.01216E-1,-8.097573E-1,8.5410154E-1,4.128591E-1,-4.7947118E-1,1.0421628E0,-3.3671954E-3,-1.3399321E-1,-0E0,1.1313723E-1,5.305835E-1,7.052859E-1,5.1931214E-1,1.2276042E-2,-1.0801006E-2,-5.724405E-2,-0E0,6.630406E-2,-0E0,-0E0,-1.9376216E-2,6.2695765E-3,4.770286E-2,1.2298395E-3,-4.187658E-2,2.5189506E-2,-0E0,-0E0,-1.670959E-2],"split_indices":[15,110,19,2,55,47,21,23,0,8,23,60,58,2147483647,2147483647,0,0,0,0,0,0,0,0,0,0,2147483647,2147483647,2147483647,2147483647],"split_type":[0,0,0,0,0,0,0,0,0,0,0,0,0,0,0,0,0,0,0,0,0,0,0,0,0,0,0,0,0],"sum_hessian":[3.36E2,1.6E2,1.76E2,2.5E1,1.35E2,1.01E2,7.5E1,1.6E1,9E0,2.2E1,1.13E2,7.5E1,2.6E1,1.5E1,6E1,1.5E1,1E0,7E0,1.5E1,6.2E1,5.1E1,5.7E1,1.8E1,2E1,6E0,1E1,5E0,2.4E1,3.6E1],"tree_param":{"num_deleted":"6","num_feature":"178","num_nodes":"29","size_leaf_vector":"0"}},{"base_weights":[-2.6352945E-4,2.5756037E-2,-1.6205333E-2,4.4385064E-2,-8.763373E-3,-4.713606E-2,-0E0,-0E0,8.126018E-2,-3.024203E-2,-0E0,-8.697796E-2,-0E0,-2.0143474E-2,8.607534E-2,1.4866461E-2,-1.4574793E-2,2.9823018E-2,2.2464588E-1,-4.2603906E-2,-0E0,-0E0,-1.2797202E-1,-3.270058E-2,5.530812E-2,-4.7029786E-2,-0E0,1.00666836E-1,-0E0],"categories":[],"categories_nodes":[],"categories_segments":[],"categories_sizes":[],"default_left":[1,1,1,1,1,1,1,1,1,1,1,1,1,1,1,1,1,0,0,1,1,1,1,1,1,1,1,1,1],"id":17,"left_children":[1,3,5,7,-1,11,13,-1,17,-1,-1,-1,-1,-1,-1,-1,-1,-1,-1,-1,-1,-1,-1,-1,-1,-1,-1,-1,-1],"loss_changes":[1.3388771E-1,9.7122274E-2,1.2035401E-1,1.21120155E-1,1.9953491E-2,1.3020708E-1,2.6233643E-1,9.171002E-3,1.4521831E-1,1.4352223E-2,0E0,1.1562893E-1,6.6650406E-2,8.523478E-2,5.8753848E-2,0E0,0E0,0E0,0E0,0E0,0E0,0E0,0E0,0E0,0E0,0E0,0E0,0E0,0E0],"parents":[2147483647,0,0,1,1,2,2,3,3,4,4,5,5,6,6,7,7,8,8,9,9,11,11,12,12,13,13,14,14],"right_children":[2,4,6,8,-1,12,14,-1,18,-1,-1,-1,-1,-1,-1,-1,-1,-1,-1,-1,-1,-1,-1,-1,-1,-1,-1,-1,-1],"split_conditions":[-4.5404905E-1,4.256742E-2,-2.6969892E-1,-1.3727927E-1,-2.6290119E-3,7.069058E-1,7.20549E-1,-0E0,3.5845163E-1,-9.072609E-3,-0E0,-2.6093388E-2,-0E0,-6.0430425E-3,2.5822604E-2,4.4599385E-3,-4.372438E-3,8.946906E-3,6.7393765E-2,-1.2781172E-2,-0E0,-0E0,-3.839161E-2,-9.810174E-3,1.6592436E-2,-1.4108936E-2,-0E0,3.0200051E-2,-0E0],"split_indices":[94,16,15,20,149,84,56,20,14,2147483647,2147483647,45,39,94,84,2147483647,2147483647,0,0,2147483647,2147483647,2147483647,2147483647,2147483647,2147483647,2147483647,2147483647,2147483647,2147483647],"split_type":[0,0,0,0,0,0,0,0,0,0,0,0,0,0,0,0,0,0,0,0,0,0,0,0,0,0,0,0,0],"sum_hessian":[3.39E2,1.12E2,2.27E2,8.6E1,2.6E1,8.1E1,1.46E2,4.2E1,4.4E1,2.4E1,2E0,4.1E1,4E1,1.17E2,2.9E1,2.9E1,1.3E1,3.6E1,8E0,2E1,4E0,1.5E1,2.6E1,2.8E1,1.2E1,6E1,5.7E1,2.7E1,2E0],"tree_param":{"num_deleted":"14","num_feature":"178","num_nodes":"29","size_leaf_vector":"0"}},{"base_weights":[1.8416403E-3,2.8127506E-2,-8.318512E-3,5.1496692E-2,-2.296959E-2,-3.27418E-2,7.105294E-3,-1.7981129E-2,8.2752615E-2,-9.0997286E-2,-0E0,-1.316469E-3,-1.0386109E-1,-1.9684464E-2,3.6729634E-2,-4.1208632E-2,-0E0,-0E0,1.00197814E-1,-1.295663E-1,-0E0,2.465905E-2,-0E0,-4.229275E-2,1.1591103E-2,-1.7468168E-1,-0E0,-0E0,-4.851669E-2,6.291586E-2,-0E0],"categories":[],"categories_nodes":[],"categories_segments":[],"categories_sizes":[],"default_left":[1,1,1,1,1,1,1,1,1,1,1,1,1,1,1,1,1,1,1,1,1,1,1,1,1,0,0,1,1,1,1],"id":18,"left_children":[1,3,5,7,-1,11,-1,-1,-1,-1,-1,-1,25,-1,-1,-1,-1,-1,-1,-1,-1,-1,-1,-1,-1,-1,-1,-1,-1,-1,-1],"loss_changes":[1.0369247E-1,1.5503389E-1,1.0206767E-1,2.3456754E-1,8.565098E-2,1.5832761E-1,1.0645229E-1,1.5610002E-2,1.134426E-1,5.1723585E-2,6.688958E-3,6.3416004E-2,1.2700632E-1,4.6535082E-2,6.525154E-2,0E0,0E0,0E0,0E0,0E0,0E0,0E0,0E0,0E0,0E0,0E0,0E0,0E0,0E0,0E0,0E0],"parents":[2147483647,0,0,1,1,2,2,3,3,4,4,5,5,6,6,7,7,8,8,9,9,10,10,11,11,12,12,13,13,14,14],"right_children":[2,4,6,8,-1,12,-1,-1,-1,-1,-1,-1,26,-1,-1,-1,-1,-1,-1,-1,-1,-1,-1,-1,-1,-1,-1,-1,-1,-1,-1],"split_conditions":[-4.2929637E-1,2.1143917E-2,-5.961334E-2,-8.1200194E-1,-6.8908776E-3,3.5315967E-1,2.1315883E-3,-5.3943386E-3,2.4825785E-2,-2.7299186E-2,-0E0,-3.9494073E-4,8.904271E-1,-5.9053395E-3,1.1018891E-2,-1.236259E-2,-0E0,-0E0,3.0059345E-2,-3.886989E-2,-0E0,7.3977155E-3,-0E0,-1.2687826E-2,3.477331E-3,-5.2404504E-2,-0E0,-0E0,-1.4555008E-2,1.8874759E-2,-0E0],"split_indices":[58,43,36,16,12,18,11,55,18,2147483647,2147483647,26,14,2147483647,2147483647,2147483647,2147483647,2147483647,2147483647,2147483647,2147483647,2147483647,2147483647,2147483647,2147483647,0,0,2147483647,2147483647,2147483647,2147483647],"split_type":[0,0,0,0,0,0,0,0,0,0,0,0,0,0,0,0,0,0,0,0,0,0,0,0,0,0,0,0,0,0,0],"sum_hessian":[3.36E2,1.13E2,2.23E2,8.7E1,2.6E1,1.04E2,1.19E2,2E1,6.7E1,1.2E1,1.4E1,7.9E1,2.5E1,5E1,6.9E1,1.3E1,7E0,1E1,5.7E1,9E0,3E0,1.1E1,3E0,3.2E1,4.7E1,1.3E1,1.2E1,2.2E1,2.8E1,4E1,2.9E1],"tree_param":{"num_deleted":"18","num_feature":"178","num_nodes":"31","size_leaf_vector":"0"}},{"base_weights":[-0E0,-1.7516889E-2,1.39296865E-2,-2.6882344E-1,-8.568416E-3,-5.707284E-4,3.9049987E-2,-0E0,-6.577589E-2,2.4795987E-2,-3.3784337E-2,1.0406377E-1,-0E0,2.1309039E-2,-1.9240605E-2,-0E0,-9.779898E-2,-0E0,9.7045675E-2,-8.883327E-2,-0E0,5.0576287E-3,2.4384399E-1,-0E0,6.935957E-2],"categories":[],"categories_nodes":[],"categories_segments":[],"categories_sizes":[],"default_left":[1,1,1,0,1,1,1,1,1,1,1,1,1,1,1,1,1,1,1,0,0,0,0,1,1],"id":19,"left_children":[1,3,5,-1,-1,9,11,-1,-1,-1,19,21,-1,-1,-1,-1,-1,-1,-1,-1,-1,-1,-1,-1,-1],"loss_changes":[8.3921984E-2,1.7785347E-1,8.9035735E-2,0E0,7.889015E-2,8.216051E-2,1.3791344E-1,5.818838E-2,8.1309415E-2,9.845633E-2,1.311842E-1,1.5676776E-1,3.848759E-2,0E0,0E0,0E0,0E0,0E0,0E0,0E0,0E0,0E0,0E0,0E0,0E0],"parents":[2147483647,0,0,1,1,2,2,4,4,5,5,6,6,7,7,8,8,9,9,10,10,11,11,12,12],"right_children":[2,4,6,-1,-1,10,12,-1,-1,-1,20,22,-1,-1,-1,-1,-1,-1,-1,-1,-1,-1,-1,-1,-1],"split_conditions":[-2.5237307E-1,-1.6131978E0,6.944135E-2,-8.064704E-2,-2.570525E-3,5.2790552E-2,1.9009829E-2,-0E0,-1.973277E-2,7.438796E-3,-3.4919366E-1,-9.9206194E-2,-0E0,6.392712E-3,-5.772182E-3,-0E0,-2.9339695E-2,-0E0,2.9113704E-2,-2.6649984E-2,-0E0,1.5172887E-3,7.31532E-2,-0E0,2.0807872E-2],"split_indices":[56,60,60,0,51,91,71,2147483647,2147483647,45,95,125,42,2147483647,2147483647,2147483647,2147483647,2147483647,2147483647,0,0,0,0,2147483647,2147483647],"split_type":[0,0,0,0,0,0,0,0,0,0,0,0,0,0,0,0,0,0,0,0,0,0,0,0,0],"sum_hessian":[3.36E2,1.66E2,1.7E2,3E0,1.63E2,9E1,8E1,1.42E2,2.1E1,3.9E1,5.1E1,2.4E1,5.6E1,6.7E1,7.5E1,3E0,1.8E1,2.6E1,1.3E1,2.4E1,2.7E1,1.7E1,7E0,4.8E1,8E0],"tree_param":{"num_deleted":"10","num_feature":"178","num_nodes":"25","size_leaf_vector":"0"}},{"base_weights":[-0E0,3.36628E-2,-6.2240954E-3,-0E0,7.6698065E-2,-2.859771E-2,1.3789894E-3,-2.6175927E-2,7.430452E-3,-0E0,1.269117E-1,-8.3709404E-2,-0E0,4.590008E-2,-9.810026E-3,-6.732344E-2,-0E0,2.8801596E-2,-0E0,1.9136648E-1,-0E0,-1.1280414E-1,-0E0,1.334455E-2,-0E0,-0E0,7.419188E-2,-4.0506683E-2,-0E0],"categories":[],"categories_nodes":[],"categories_segments":[],"categories_sizes":[],"default_left":[1,1,1,1,1,1,1,1,1,0,1,1,1,1,1,1,1,1,1,0,0,0,0,1,1,1,1,1,1],"id":20,"left_children":[1,3,5,-1,9,11,-1,-1,-1,-1,19,21,-1,-1,-1,-1,-1,-1,-1,-1,-1,-1,-1,-1,-1,-1,-1,-1,-1],"loss_changes":[7.860601E-2,1.0848834E-1,6.578798E-2,1.1106107E-2,9.7337425E-2,1.9722724E-1,1.1559382E-1,3.5048034E-2,9.955998E-3,0E0,1.2902737E-1,1.3391134E-1,7.123139E-3,1.0593562E-1,5.1288143E-2,0E0,0E0,0E0,0E0,0E0,0E0,0E0,0E0,0E0,0E0,0E0,0E0,0E0,0E0],"parents":[2147483647,0,0,1,1,2,2,3,3,4,4,5,5,6,6,7,7,8,8,10,10,11,11,12,12,13,13,14,14],"right_children":[2,4,6,-1,10,12,-1,-1,-1,-1,20,22,-1,-1,-1,-1,-1,-1,-1,-1,-1,-1,-1,-1,-1,-1,-1,-1,-1],"split_conditions":[-6.807854E-1,-4.165896E-1,-5.3353894E-1,-0E0,-4.9196193E-1,-3.4919366E-1,4.1369683E-4,-7.852779E-3,2.2291357E-3,-0E0,5.325963E-1,2.745089E-1,-0E0,1.3770024E-2,-2.943008E-3,-2.0197032E-2,-0E0,8.640479E-3,-0E0,5.7409946E-2,-0E0,-3.384124E-2,-0E0,4.003365E-3,-0E0,-0E0,2.2257566E-2,-1.2152006E-2,-0E0],"split_indices":[96,78,60,17,73,95,89,2147483647,2147483647,0,67,2,85,2147483647,2147483647,2147483647,2147483647,2147483647,2147483647,0,0,0,0,2147483647,2147483647,2147483647,2147483647,2147483647,2147483647],"split_type":[0,0,0,0,0,0,0,0,0,0,0,0,0,0,0,0,0,0,0,0,0,0,0,0,0,0,0,0,0],"sum_hessian":[3.34E2,6E1,2.74E2,3E1,3E1,9.3E1,1.81E2,1.5E1,1.5E1,1.3E1,1.7E1,3.9E1,5.4E1,4.9E1,1.32E2,1E1,5E0,1.3E1,2E0,1.1E1,6E0,3.2E1,7E0,4E1,1.4E1,1.1E1,3.8E1,3.9E1,9.3E1],"tree_param":{"num_deleted":"14","num_feature":"178","num_nodes":"29","size_leaf_vector":"0"}},{"base_weights":[-0E0,8.319807E-3,-2.9084517E-2,4.521431E-2,-0E0,-0E0,-8.286744E-2,-0E0,1.289735E-1,-2.692314E-2,3.370152E-3,-6.2198853E-3,2.796031E-2,-1.0847487E-2,-2.6680237E-1,5.2623127E-2,-3.7579425E-2,1.6741954E-1,-0E0,-5.6831047E-2,-0E0,-0E0,4.7647417E-2,-0E0,-2.648752E-2,-0E0,3.188466E-2,-0E0,-4.4671647E-2],"categories":[],"categories_nodes":[],"categories_segments":[],"categories_sizes":[],"default_left":[1,1,1,1,1,1,1,1,1,1,1,1,1,1,0,1,1,1,1,1,1,1,1,1,1,1,1,1,1],"id":21,"left_children":[1,3,5,7,-1,-1,13,-1,-1,-1,-1,-1,-1,-1,-1,-1,-1,-1,-1,-1,-1,-1,-1,-1,-1,-1,-1,-1,-1],"loss_changes":[7.53654E-2,9.9882826E-2,1.08134404E-1,1.8084845E-1,2.8094035E-2,8.351639E-3,1.2230039E-1,8.362952E-2,6.496972E-2,5.7880003E-2,5.248838E-2,1.5522992E-2,1.0971199E-3,2.5585046E-2,0E0,0E0,0E0,0E0,0E0,0E0,0E0,0E0,0E0,0E0,0E0,0E0,0E0,0E0,0E0],"parents":[2147483647,0,0,1,1,2,2,3,3,4,4,5,5,6,6,7,7,8,8,9,9,10,10,11,11,12,12,13,13],"right_children":[2,4,6,8,-1,-1,14,-1,-1,-1,-1,-1,-1,-1,-1,-1,-1,-1,-1,-1,-1,-1,-1,-1,-1,-1,-1,-1,-1],"split_conditions":[9.663037E-1,-4.4485843E-1,-8.126774E-1,-1.7303115E-1,-0E0,-0E0,1.1254511E0,-0E0,3.869205E-2,-8.0769425E-3,1.0110456E-3,-1.8659657E-3,8.388094E-3,-3.2542462E-3,-8.0040716E-2,1.5786938E-2,-1.1273827E-2,5.0225865E-2,-0E0,-1.7049314E-2,-0E0,-0E0,1.4294226E-2,-0E0,-7.946257E-3,-0E0,9.565398E-3,-0E0,-1.3401494E-2],"split_indices":[4,66,5,22,76,22,25,86,87,2147483647,2147483647,2147483647,2147483647,24,0,2147483647,2147483647,2147483647,2147483647,2147483647,2147483647,2147483647,2147483647,2147483647,2147483647,2147483647,2147483647,2147483647,2147483647],"split_type":[0,0,0,0,0,0,0,0,0,0,0,0,0,0,0,0,0,0,0,0,0,0,0,0,0,0,0,0,0],"sum_hessian":[3.37E2,2.7E2,6.7E1,5.8E1,2.12E2,4.3E1,2.4E1,4E1,1.8E1,3.6E1,1.76E2,3.4E1,9E0,2E1,4E0,2E1,2E1,1.3E1,5E0,2.6E1,1E1,1.52E2,2.4E1,1E1,2.4E1,1E0,8E0,6E0,1.4E1],"tree_param":{"num_deleted":"18","num_feature":"178","num_nodes":"29","size_leaf_vector":"0"}},{"base_weights":[1.5460647E-3,-3.0911888E-3,2.3165423E-2,-3.396188E-2,2.028928E-3,-0E0,8.3170794E-2,-5.84449E-2,-0E0,-6.836374E-4,8.723097E-2,2.4020303E-2,-4.023344E-2,1.055254E-1,-0E0,-1.3159944E-1,-6.0213595E-3,-5.364501E-2,1.871221E-4,1.7078194E-1,-0E0,8.7191455E-2,-0E0,-0E0,-1.0431491E-1,1.266506E-1,-0E0],"categories":[],"categories_nodes":[],"categories_segments":[],"categories_sizes":[],"default_left":[1,1,1,1,1,1,1,1,1,1,1,1,1,1,1,1,1,1,1,1,1,1,1,1,1,1,1],"id":22,"left_children":[1,-1,5,-1,-1,-1,-1,-1,-1,-1,-1,-1,-1,-1,-1,-1,-1,-1,-1,-1,-1,-1,-1,-1,-1,-1,-1],"loss_changes":[4.7729507E-2,6.1857197E-2,1.4062062E-1,5.611646E-2,1.0581743E-1,6.112787E-2,5.8215544E-2,3.7259787E-2,0E0,4.5967165E-2,9.764305E-2,1.0259974E-1,7.76137E-2,7.5825706E-2,0E0,0E0,0E0,0E0,0E0,0E0,0E0,0E0,0E0,0E0,0E0,0E0,0E0],"parents":[2147483647,0,0,1,1,2,2,3,3,4,4,5,5,6,6,7,7,9,9,10,10,11,11,12,12,13,13],"right_children":[2,-1,6,-1,-1,-1,-1,-1,-1,-1,-1,-1,-1,-1,-1,-1,-1,-1,-1,-1,-1,-1,-1,-1,-1,-1,-1],"split_conditions":[5.534805E-1,-9.273567E-4,7.7148956E-1,-1.0188565E-2,6.086784E-4,-0E0,2.495124E-2,-1.753347E-2,-0E0,-2.0509123E-4,2.6169293E-2,7.206091E-3,-1.2070033E-2,3.165762E-2,-0E0,-3.9479833E-2,-1.8064079E-3,-1.6093504E-2,5.6136632E-5,5.1234584E-2,-0E0,2.6157437E-2,-0E0,-0E0,-3.1294473E-2,3.7995182E-2,-0E0],"split_indices":[100,93,21,2147483647,2147483647,47,94,2147483647,2147483647,2147483647,2147483647,2147483647,2147483647,2147483647,2147483647,2147483647,2147483647,2147483647,2147483647,2147483647,2147483647,2147483647,2147483647,2147483647,2147483647,2147483647,2147483647],"split_type":[0,0,0,0,0,0,0,0,0,0,0,0,0,0,0,0,0,0,0,0,0,0,0,0,0,0,0],"sum_hessian":[3.35E2,2.49E2,8.6E1,5.5E1,1.94E2,5.9E1,2.7E1,3.5E1,2E1,1.8E2,1.4E1,3.3E1,2.6E1,2.2E1,5E0,9E0,2.6E1,1.6E1,1.64E2,7E0,7E0,1.6E1,1.7E1,1.5E1,1.1E1,2E1,2E0],"tree_param":{"num_deleted":"22","num_feature":"178","num_nodes":"27","size_leaf_vector":"0"}},{"base_weights":[-0E0,-1.24138305E-2,1.2846909E-2,9.86786E-3,-3.7025876E-2,3.602932E-2,-0E0,-2.8608665E-2,4.073727E-2,-0E0,-5.6413304E-2,8.510661E-2,-0E0,-4.3479774E-2,6.064469E-3,-5.3207487E-2,-0E0,5.975237E-2,-0E0,-9.049467E-2,-0E0,2.0816478E-1,-0E0,2.7985305E-2,-6.179417E-2,-0E0,-8.127306E-2,1.6248547E-2,-0E0],"categories":[],"categories_nodes":[],"categories_segments":[],"categories_sizes":[],"default_left":[1,1,1,1,1,1,1,1,1,1,1,1,1,1,1,1,1,1,1,1,1,0,0,1,1,1,1,1,1],"id":23,"left_children":[1,-1,5,-1,-1,11,-1,-1,-1,-1,-1,21,-1,-1,-1,-1,-1,-1,-1,-1,-1,-1,-1,-1,-1,-1,-1,-1,-1],"loss_changes":[5.335223E-2,1.0797618E-1,6.507704E-2,9.168887E-2,8.073634E-2,1.1658881E-1,4.075268E-2,1.9616574E-2,6.5068066E-2,0E0,9.614523E-2,2.2328682E-1,7.010226E-2,3.4850158E-2,1.2898768E-2,0E0,0E0,0E0,0E0,0E0,0E0,0E0,0E0,0E0,0E0,0E0,0E0,0E0,0E0],"parents":[2147483647,0,0,1,1,2,2,3,3,4,4,5,5,6,6,7,7,8,8,10,10,11,11,12,12,13,13,14,14],"right_children":[2,-1,6,-1,-1,12,-1,-1,-1,-1,-1,22,-1,-1,-1,-1,-1,-1,-1,-1,-1,-1,-1,-1,-1,-1,-1,-1,-1],"split_conditions":[-2.5237307E-1,-3.7241492E-3,-5.2317655E-1,2.960358E-3,-1.1107763E-2,-3.18751E-2,-0E0,-8.582599E-3,1.2221182E-2,-0E0,-1.6923992E-2,-4.524529E-1,-0E0,-1.3043933E-2,1.8193407E-3,-1.5962247E-2,-0E0,1.7925711E-2,-0E0,-2.7148401E-2,-0E0,6.2449437E-2,-0E0,8.395592E-3,-1.8538252E-2,-0E0,-2.4381919E-2,4.8745642E-3,-0E0],"split_indices":[56,33,2,2147483647,2147483647,43,14,2147483647,2147483647,2147483647,2147483647,66,19,2147483647,2147483647,2147483647,2147483647,2147483647,2147483647,2147483647,2147483647,0,0,2147483647,2147483647,2147483647,2147483647,2147483647,2147483647],"split_type":[0,0,0,0,0,0,0,0,0,0,0,0,0,0,0,0,0,0,0,0,0,0,0,0,0,0,0,0,0],"sum_hessian":[3.34E2,1.62E2,1.72E2,7E1,9.2E1,7.2E1,1E2,2.1E1,4.9E1,2.7E1,6.5E1,2.9E1,4.3E1,2E1,8E1,1.3E1,8E0,4.1E1,8E0,3.7E1,2.8E1,1E1,1.9E1,3.1E1,1.2E1,9E0,1.1E1,6E1,2E1],"tree_param":{"num_deleted":"20","num_feature":"178","num_nodes":"29","size_leaf_vector":"0"}},{"base_weights":[-9.164777E-4,1.7018326E-3,-3.3505656E-2,-0E0,4.5747347E-2,-7.3576026E-2,3.6281284E-2,6.6919094E-3,-4.8876543E-2,8.495542E-2,-0E0,-0E0,-8.836596E-2,1.7062107E-2,-1.665304E-2,-1.1776248E-1,-0E0,1.2236478E-1,-0E0,-1.0410996E-1,-0E0],"categories":[],"categories_nodes":[],"categories_segments":[],"categories_sizes":[],"default_left":[1,1,1,1,1,1,0,1,1,1,1,1,1,1,1,0,0,1,1,1,1],"id":24,"left_children":[1,3,5,7,-1,-1,-1,-1,15,-1,-1,-1,-1,-1,-1,-1,-1,-1,-1,-1,-1],"loss_changes":[5.1079266E-2,4.938556E-2,1.52117E-1,1.12755306E-1,5.0817944E-2,6.821258E-2,0E0,5.451695E-2,1.6077244E-1,4.8690036E-2,0E0,0E0,3.4968942E-2,0E0,0E0,0E0,0E0,0E0,0E0,0E0,0E0],"parents":[2147483647,0,0,1,1,2,2,3,3,4,4,5,5,7,7,8,8,9,9,12,12],"right_children":[2,4,6,8,-1,-1,-1,-1,16,-1,-1,-1,-1,-1,-1,-1,-1,-1,-1,-1,-1],"split_conditions":[1.0397062E0,1.392227E0,1.375474E0,5.4994917E-1,1.3724205E-2,-2.2072809E-2,1.0884386E-2,2.007573E-3,1.2488606E0,2.5486626E-2,-0E0,-0E0,-2.6509788E-2,5.118632E-3,-4.9959123E-3,-3.5328746E-2,-0E0,3.6709435E-2,-0E0,-3.1232988E-2,-0E0],"split_indices":[43,87,69,83,25,2,0,4,94,2147483647,2147483647,2147483647,2147483647,2147483647,2147483647,0,0,2147483647,2147483647,2147483647,2147483647],"split_type":[0,0,0,0,0,0,0,0,0,0,0,0,0,0,0,0,0,0,0,0,0],"sum_hessian":[3.36E2,2.91E2,4.5E1,2.67E2,2.4E1,3.5E1,1E1,2.24E2,4.3E1,1.4E1,1E1,2E0,3.3E1,1.76E2,4.8E1,1.9E1,2.4E1,1E1,4E0,2.7E1,6E0],"tree_param":{"num_deleted":"10","num_feature":"178","num_nodes":"21","size_leaf_vector":"0"}},{"base_weights":[5.185936E-4,4.0298145E-2,-1.5988001E-3,-0E0,9.385089E-2,-7.82633E-3,3.5067234E-2,1.89666E-2,-4.189679E-2,1.1394362E-1,-0E0,-2.3248687E-2,4.742125E-3,-0E0,9.754467E-2,5.2760858E-2,-0E0,-6.303953E-2,-0E0,-0E0,1.3490969E-1,-0E0,-4.6526372E-2,5.6137618E-2,-0E0,1.0663708E-1,-0E0],"categories":[],"categories_nodes":[],"categories_segments":[],"categories_sizes":[],"default_left":[1,1,1,1,1,1,1,1,1,1,1,1,1,1,1,1,1,1,1,1,1,1,1,1,1,1,1],"id":25,"left_children":[-1,-1,-1,-1,-1,-1,-1,-1,-1,-1,-1,-1,-1,-1,-1,-1,-1,-1,-1,-1,-1,-1,-1,-1,-1,-1,-1],"loss_changes":[5.590526E-2,9.452422E-2,5.067805E-2,1.8676626E-2,5.799596E-2,6.692593E-2,7.023543E-2,1.3825197E-2,1.5994523E-2,4.7080114E-2,0E0,7.045456E-2,6.330268E-2,0E0,9.050697E-3,0E0,0E0,0E0,0E0,0E0,0E0,0E0,0E0,0E0,0E0,0E0,0E0],"parents":[2147483647,0,0,1,1,2,2,3,3,4,4,5,5,6,6,7,7,8,8,9,9,11,11,12,12,14,14],"right_children":[-1,-1,-1,-1,-1,-1,-1,-1,-1,-1,-1,-1,-1,-1,-1,-1,-1,-1,-1,-1,-1,-1,-1,-1,-1,-1,-1],"split_conditions":[1.5557808E-4,1.2089444E-2,-4.7964003E-4,-0E0,2.8155267E-2,-2.3478991E-3,1.052017E-2,5.6899805E-3,-1.2569037E-2,3.418309E-2,-0E0,-6.9746063E-3,1.4226376E-3,-0E0,2.9263401E-2,1.5828257E-2,-0E0,-1.8911859E-2,-0E0,-0E0,4.047291E-2,-0E0,-1.3957912E-2,1.6841287E-2,-0E0,3.1991128E-2,-0E0],"split_indices":[24,2147483647,2147483647,2147483647,2147483647,2147483647,2147483647,2147483647,2147483647,2147483647,2147483647,2147483647,2147483647,2147483647,2147483647,2147483647,2147483647,2147483647,2147483647,2147483647,2147483647,2147483647,2147483647,2147483647,2147483647,2147483647,2147483647],"split_type":[0,0,0,0,0,0,0,0,0,0,0,0,0,0,0,0,0,0,0,0,0,0,0,0,0,0,0],"sum_hessian":[3.4E2,3.4E1,3.06E2,1.7E1,1.7E1,2.78E2,2.8E1,8E0,9E0,1.6E1,1E0,1.5E2,1.28E2,1.7E1,1.1E1,6E0,2E0,8E0,1E0,2E0,1.4E1,8E1,7E1,2.1E1,1.07E2,1E1,1E0],"tree_param":{"num_deleted":"26","num_feature":"178","num_nodes":"27","size_leaf_vector":"0"}},{"base_weights":[-0E0,1.5391592E-2,-6.5020397E-3,3.791815E-2,-3.221589E-2,-3.8311746E-2,-0E0,-0E0,6.1096292E-2,-8.265468E-2,-0E0,-0E0,-6.1715096E-2,-5.7053912E-2,6.9595226E-3,-2.6631746E-2,-0E0,-0E0,8.411541E-2,-1.2202815E-1,-0E0,-0E0,-8.9443654E-2,-0E0,-7.733047E-2,5.6354508E-2,-0E0],"categories":[],"categories_nodes":[],"categories_segments":[],"categories_sizes":[],"default_left":[1,1,1,1,1,1,1,1,1,1,1,1,1,1,1,1,1,0,0,1,1,1,1,1,1,1,1],"id":26,"left_children":[1,3,-1,7,-1,-1,-1,-1,17,-1,-1,-1,-1,-1,-1,-1,-1,-1,-1,-1,-1,-1,-1,-1,-1,-1,-1],"loss_changes":[3.4750655E-2,1.1769641E-1,6.081534E-2,1.0980048E-1,9.1233715E-2,6.666197E-2,5.361338E-2,7.801984E-3,1.2607305E-1,7.744345E-2,0E0,0E0,6.289047E-2,2.6188832E-2,8.4059924E-2,0E0,0E0,0E0,0E0,0E0,0E0,0E0,0E0,0E0,0E0,0E0,0E0],"parents":[2147483647,0,0,1,1,2,2,3,3,4,4,5,5,6,6,7,7,8,8,9,9,12,12,13,13,14,14],"right_children":[2,4,-1,8,-1,-1,-1,-1,18,-1,-1,-1,-1,-1,-1,-1,-1,-1,-1,-1,-1,-1,-1,-1,-1,-1,-1],"split_conditions":[-4.6624702E-1,2.1143917E-2,-1.950612E-3,-8.1200194E-1,-9.664767E-3,-1.1493525E-2,-0E0,-0E0,-8.669627E-1,-2.4796404E-2,-0E0,-0E0,-1.8514529E-2,-1.7116174E-2,2.0878569E-3,-7.989524E-3,-0E0,-0E0,2.5234623E-2,-3.6608446E-2,-0E0,-0E0,-2.6833097E-2,-0E0,-2.3199141E-2,1.6906353E-2,-0E0],"split_indices":[58,43,43,16,76,2147483647,2147483647,34,22,2147483647,2147483647,2147483647,2147483647,2147483647,2147483647,2147483647,2147483647,0,0,2147483647,2147483647,2147483647,2147483647,2147483647,2147483647,2147483647,2147483647],"split_type":[0,0,0,0,0,0,0,0,0,0,0,0,0,0,0,0,0,0,0,0,0,0,0,0,0,0,0],"sum_hessian":[3.34E2,1.06E2,2.28E2,8.2E1,2.4E1,4.8E1,1.8E2,2.1E1,6.1E1,1.7E1,7E0,1.2E1,3.6E1,1.4E1,1.66E2,1.1E1,1E1,1.1E1,5E1,1.3E1,4E0,1.1E1,2.5E1,2E0,1.2E1,2.9E1,1.37E2],"tree_param":{"num_deleted":"18","num_feature":"178","num_nodes":"27","size_leaf_vector":"0"}},{"base_weights":[-2.3458144E-4,-1.5825685E-2,8.609582E-3,-4.2582437E-2,-0E0,-0E0,4.0026788E-2,-3.6851028E-3,-1.0171712E-1,9.7435124E-2,-1.4840171E-2,-7.321786E-3,4.196645E-2,5.9264675E-2,-0E0,6.8714265E-3,-2.95148E-2,-1.2823077E-1,-0E0,2.2872828E-1,-0E0,-4.9245864E-2,-0E0,5.4917447E-3,-2.600605E-2,6.502709E-2,-0E0,-0E0,7.566325E-2],"categories":[],"categories_nodes":[],"categories_segments":[],"categories_sizes":[],"default_left":[1,1,1,1,1,1,1,1,1,1,1,1,1,1,1,1,1,1,1,0,0,1,1,1,1,1,1,1,1],"id":27,"left_children":[1,3,-1,-1,9,-1,-1,-1,-1,19,-1,-1,-1,-1,-1,-1,-1,-1,-1,-1,-1,-1,-1,-1,-1,-1,-1,-1,-1],"loss_changes":[5.0864086E-2,8.2358554E-2,6.173641E-2,7.754674E-2,1.5738297E-1,3.1197404E-2,3.3581227E-2,2.8770147E-2,6.651102E-2,1.7150986E-1,4.807908E-2,4.3662593E-2,2.6086522E-2,4.569243E-2,0E0,0E0,0E0,0E0,0E0,0E0,0E0,0E0,0E0,0E0,0E0,0E0,0E0,0E0,0E0],"parents":[2147483647,0,0,1,1,2,2,3,3,4,4,5,5,6,6,7,7,8,8,9,9,10,10,11,11,12,12,13,13],"right_children":[2,4,-1,-1,10,-1,-1,-1,-1,20,-1,-1,-1,-1,-1,-1,-1,-1,-1,-1,-1,-1,-1,-1,-1,-1,-1,-1,-1],"split_conditions":[-3.0400163E-1,4.5400485E-1,2.5828746E-3,-1.2774732E-2,5.2140266E-1,-0E0,1.20080365E-2,-1.1055309E-3,-3.0515138E-2,-6.2878764E-1,-4.4520516E-3,-2.196536E-3,1.2589935E-2,1.7779402E-2,-0E0,2.061428E-3,-8.85444E-3,-3.8469233E-2,-0E0,6.8618484E-2,-0E0,-1.477376E-2,-0E0,1.6475235E-3,-7.8018154E-3,1.9508127E-2,-0E0,-0E0,2.2698976E-2],"split_indices":[93,3,11,46,3,2147483647,2147483647,2147483647,2147483647,13,62,2147483647,2147483647,2147483647,2147483647,2147483647,2147483647,2147483647,2147483647,0,0,2147483647,2147483647,2147483647,2147483647,2147483647,2147483647,2147483647,2147483647],"split_type":[0,0,0,0,0,0,0,0,0,0,0,0,0,0,0,0,0,0,0,0,0,0,0,0,0,0,0,0,0],"sum_hessian":[3.32E2,1.49E2,1.83E2,6.6E1,8.3E1,1.36E2,4.7E1,4.7E1,1.9E1,1.5E1,6.8E1,1.22E2,1.4E1,3.1E1,1.6E1,1.4E1,3.3E1,1.6E1,3E0,6E0,9E0,2.6E1,4.2E1,5E1,7.2E1,1.2E1,2E0,4E0,2.7E1],"tree_param":{"num_deleted":"20","num_feature":"178","num_nodes":"29","size_leaf_vector":"0"}},{"base_weights":[-0E0,-1.9471997E-3,6.034477E-2,-0E0,-1.17831185E-1,9.130626E-2,-0E0,-9.70858E-3,1.8179612E-2,-0E0,1.2832102E-1,-0E0,-2.7618734E-2,-0E0,3.6865037E-2,1.4741048E-1,-0E0],"categories":[],"categories_nodes":[],"categories_segments":[],"categories_sizes":[],"default_left":[1,1,1,1,1,1,1,1,1,1,1,1,1,1,1,1,1],"id":28,"left_children":[-1,-1,-1,-1,-1,-1,-1,-1,-1,-1,-1,-1,-1,-1,-1,-1,-1],"loss_changes":[3.763701E-2,6.8204656E-2,3.0281316E-2,5.5629812E-2,0E0,4.8572004E-2,0E0,5.057197E-2,5.2313037E-2,0E0,1.511687E-2,0E0,0E0,0E0,0E0,0E0,0E0],"parents":[2147483647,0,0,1,1,2,2,3,3,5,5,7,7,8,8,10,10],"right_children":[-1,-1,-1,-1,-1,-1,-1,-1,-1,-1,-1,-1,-1,-1,-1,-1,-1],"split_conditions":[-0E0,-5.841599E-4,1.8103432E-2,-0E0,-3.5349358E-2,2.7391879E-2,-0E0,-2.912574E-3,5.4538837E-3,-0E0,3.8496308E-2,-0E0,-8.28562E-3,-0E0,1.1059511E-2,4.4223145E-2,-0E0],"split_indices":[25,2147483647,2147483647,2147483647,2147483647,2147483647,2147483647,2147483647,2147483647,2147483647,2147483647,2147483647,2147483647,2147483647,2147483647,2147483647,2147483647],"split_type":[0,0,0,0,0,0,0,0,0,0,0,0,0,0,0,0,0],"sum_hessian":[3.32E2,3.22E2,1E1,3.17E2,5E0,8E0,2E0,2.08E2,1.09E2,1E0,7E0,1.16E2,9.2E1,4.4E1,6.5E1,6E0,1E0],"tree_param":{"num_deleted":"16","num_feature":"178","num_nodes":"17","size_leaf_vector":"0"}},{"base_weights":[2.8058523E-4,6.9724056E-3,-2.1369599E-2,5.9051197E-2,-0E0,-1.093897E-1,-0E0,8.2517944E-2,-0E0,-3.7724208E-2,6.443961E-3,-0E0,-1.3892809E-1,-0E0,3.738335E-2,1.2320995E-1,-0E0,-6.2382575E-2,-0E0,-3.5372635E-3,1.9101681E-2,-1.5256932E-1,-0E0,-5.7675587E-3,-0E0],"categories":[],"categories_nodes":[],"categories_segments":[],"categories_sizes":[],"default_left":[1,1,1,1,1,1,1,1,1,1,1,1,1,1,1,1,1,1,1,1,1,1,1,1,1],"id":29,"left_children":[1,-1,5,-1,-1,-1,-1,-1,-1,-1,-1,-1,-1,-1,-1,-1,-1,-1,-1,-1,-1,-1,-1,-1,-1],"loss_changes":[3.8245536E-2,8.402632E-2,1.5483579E-1,7.2594136E-2,5.1912434E-2,3.282197E-2,9.783068E-3,1.03025004E-1,0E0,4.292223E-2,3.901405E-2,0E0,2.0464197E-2,8.981588E-4,0E0,0E0,0E0,0E0,0E0,0E0,0E0,0E0,0E0,0E0,0E0],"parents":[2147483647,0,0,1,1,2,2,3,3,4,4,5,5,6,6,7,7,9,9,10,10,12,12,13,13],"right_children":[2,-1,6,-1,-1,-1,-1,-1,-1,-1,-1,-1,-1,-1,-1,-1,-1,-1,-1,-1,-1,-1,-1,-1,-1],"split_conditions":[1.326143E0,2.0917219E-3,-6.192633E-1,1.771536E-2,-0E0,-3.2816913E-2,-0E0,2.4755385E-2,-0E0,-1.1317262E-2,1.9331884E-3,-0E0,-4.167843E-2,-0E0,1.1215006E-2,3.6962986E-2,-0E0,-1.8714773E-2,-0E0,-1.0611791E-3,5.7305046E-3,-4.5770798E-2,-0E0,-1.7302677E-3,-0E0],"split_indices":[4,24,62,2147483647,2147483647,94,33,2147483647,2147483647,2147483647,2147483647,2147483647,2147483647,2147483647,2147483647,2147483647,2147483647,2147483647,2147483647,2147483647,2147483647,2147483647,2147483647,2147483647,2147483647],"split_type":[0,0,0,0,0,0,0,0,0,0,0,0,0,0,0,0,0,0,0,0,0,0,0,0,0],"sum_hessian":[3.34E2,2.8E2,5.4E1,2.8E1,2.52E2,1.5E1,3.9E1,2.5E1,3E0,3E1,2.22E2,4E0,1.1E1,3.2E1,7E0,1.8E1,7E0,2.2E1,8E0,9.3E1,1.29E2,1E1,1E0,2.7E1,5E0],"tree_param":{"num_deleted":"20","num_feature":"178","num_nodes":"25","size_leaf_vector":"0"}},{"base_weights":[-0E0,-1.646439E-2,6.7480286E-3,-0E0,-5.592904E-2,6.715485E-2,-0E0,-0E0,3.8247734E-2,-0E0,-7.761521E-2,9.309854E-2,-0E0,-2.1786325E-2,5.792883E-3,-1.1473574E-2,-0E0,4.1567788E-2,-0E0,-0E0,-9.0510406E-2,1.0040402E-1,-0E0,-0E0,-4.084007E-2,-3.5140163E-3,4.2967778E-2],"categories":[],"categories_nodes":[],"categories_segments":[],"categories_sizes":[],"default_left":[1,1,1,1,1,1,1,1,1,1,1,1,1,1,1,1,1,1,1,1,1,1,1,1,1,1,1],"id":30,"left_children":[-1,-1,-1,-1,-1,-1,-1,-1,-1,-1,-1,-1,-1,-1,-1,-1,-1,-1,-1,-1,-1,-1,-1,-1,-1,-1,-1],"loss_changes":[3.199014E-2,8.003916E-2,1.09834954E-1,1.3166488E-2,5.6530237E-2,6.0251616E-2,3.0381588E-2,3.8176877E-3,6.571328E-4,0E0,4.817693E-2,9.524718E-3,0E0,3.5838366E-2,9.145995E-2,0E0,0E0,0E0,0E0,0E0,0E0,0E0,0E0,0E0,0E0,0E0,0E0],"parents":[2147483647,0,0,1,1,2,2,3,3,4,4,5,5,6,6,7,7,8,8,10,10,11,11,13,13,14,14],"right_children":[-1,-1,-1,-1,-1,-1,-1,-1,-1,-1,-1,-1,-1,-1,-1,-1,-1,-1,-1,-1,-1,-1,-1,-1,-1,-1,-1],"split_conditions":[-0E0,-4.9393172E-3,2.0244087E-3,-0E0,-1.6778713E-2,2.0146456E-2,-0E0,-0E0,1.1474321E-2,-0E0,-2.3284564E-2,2.7929565E-2,-0E0,-6.5358975E-3,1.737865E-3,-3.4420723E-3,-0E0,1.2470337E-2,-0E0,-0E0,-2.7153123E-2,3.0121205E-2,-0E0,-0E0,-1.2252022E-2,-1.0542049E-3,1.2890334E-2],"split_indices":[26,2147483647,2147483647,2147483647,2147483647,2147483647,2147483647,2147483647,2147483647,2147483647,2147483647,2147483647,2147483647,2147483647,2147483647,2147483647,2147483647,2147483647,2147483647,2147483647,2147483647,2147483647,2147483647,2147483647,2147483647,2147483647,2147483647],"split_type":[0,0,0,0,0,0,0,0,0,0,0,0,0,0,0,0,0,0,0,0,0,0,0,0,0,0,0],"sum_hessian":[3.36E2,7.4E1,2.62E2,4.2E1,3.2E1,2.7E1,2.35E2,3.3E1,9E0,6E0,2.6E1,2.1E1,6E0,5.1E1,1.84E2,2.9E1,4E0,8E0,1E0,1E0,2.5E1,1.9E1,2E0,1.5E1,3.6E1,1.32E2,5.2E1],"tree_param":{"num_deleted":"26","num_feature":"178","num_nodes":"27","size_leaf_vector":"0"}},{"base_weights":[-0E0,-2.103593E-3,5.3635966E-2,1.5620345E-3,-3.642954E-2,-0E0,8.353415E-2,4.5588855E-2,-0E0,-7.342847E-2,-0E0,1.4369628E-1,-0E0,-0E0,6.568628E-2,-6.028374E-3,2.2856506E-2,-9.206734E-2,-0E0,3.3145234E-2,-0E0,2.0046473E-1,-0E0],"categories":[],"categories_nodes":[],"categories_segments":[],"categories_sizes":[],"default_left":[1,1,1,1,1,1,1,1,1,1,1,1,1,1,1,1,1,1,1,1,1,1,1],"id":31,"left_children":[-1,-1,-1,-1,-1,-1,-1,-1,-1,-1,-1,-1,-1,-1,-1,-1,-1,-1,-1,-1,-1,-1,-1],"loss_changes":[3.596534E-2,6.5586835E-2,3.525911E-2,4.297248E-2,9.000624E-2,0E0,5.411672E-2,2.97052E-2,2.6279965E-2,5.5550456E-2,8.789216E-3,3.685917E-2,0E0,0E0,0E0,0E0,0E0,0E0,0E0,0E0,0E0,0E0,0E0],"parents":[2147483647,0,0,1,1,2,2,3,3,4,4,6,6,7,7,8,8,9,9,10,10,11,11],"right_children":[-1,-1,-1,-1,-1,-1,-1,-1,-1,-1,-1,-1,-1,-1,-1,-1,-1,-1,-1,-1,-1,-1,-1],"split_conditions":[-0E0,-6.310779E-4,1.609079E-2,4.6861035E-4,-1.0928862E-2,-0E0,2.5060246E-2,1.3676657E-2,-0E0,-2.2028541E-2,-0E0,4.3108884E-2,-0E0,-0E0,1.9705884E-2,-1.8085124E-3,6.856952E-3,-2.7620202E-2,-0E0,9.943571E-3,-0E0,6.013942E-2,-0E0],"split_indices":[83,2147483647,2147483647,2147483647,2147483647,2147483647,2147483647,2147483647,2147483647,2147483647,2147483647,2147483647,2147483647,2147483647,2147483647,2147483647,2147483647,2147483647,2147483647,2147483647,2147483647,2147483647,2147483647],"split_type":[0,0,0,0,0,0,0,0,0,0,0,0,0,0,0,0,0,0,0,0,0,0,0],"sum_hessian":[3.38E2,3.26E2,1.2E1,2.76E2,5E1,2E0,1E1,2.1E1,2.55E2,2.9E1,2.1E1,6E0,4E0,4E0,1.7E1,2.2E2,3.5E1,2.5E1,4E0,8E0,1.3E1,4E0,2E0],"tree_param":{"num_deleted":"22","num_feature":"178","num_nodes":"23","size_leaf_vector":"0"}},{"base_weights":[-0E0,2.1746505E-2,-3.5203253E-3,4.996727E-2,-0E0,2.9931667E-3,-2.6867785E-2,-0E0,1.2883249E-1,-5.0944842E-2,-0E0,-2.3974655E-3,5.0761905E-2,2.5773011E-2,-4.6812356E-2,-0E0,-1.1425151E-2,-0E0,2.2502218E-1,-6.359207E-2,-0E0,2.0619892E-2,-0E0,-1.6136328E-2,3.2855786E-2,6.541891E-2,-0E0,-0E0,5.242779E-2,-7.319974E-2,-0E0],"categories":[],"categories_nodes":[],"categories_segments":[],"categories_sizes":[],"default_left":[1,1,1,1,1,1,1,1,1,1,1,1,1,1,1,1,1,1,1,1,1,1,1,1,1,1,1,1,1,1,1],"id":32,"left_children":[1,3,-1,7,-1,-1,-1,-1,-1,-1,-1,-1,-1,-1,-1,-1,-1,-1,-1,-1,-1,-1,-1,-1,-1,-1,-1,-1,-1,-1,-1],"loss_changes":[3.7197456E-2,6.082679E-2,5.5448677E-2,2.0388955E-1,1.5573122E-2,7.914062E-2,9.776692E-2,1.3053839E-3,1.0633057E-1,4.647976E-3,8.07856E-3,5.7964787E-2,3.139112E-2,1.951645E-2,1.1572935E-1,0E0,0E0,0E0,0E0,0E0,0E0,0E0,0E0,0E0,0E0,0E0,0E0,0E0,0E0,0E0,0E0],"parents":[2147483647,0,0,1,1,2,2,3,3,4,4,5,5,6,6,7,7,8,8,9,9,10,10,11,11,12,12,13,13,14,14],"right_children":[2,4,-1,8,-1,-1,-1,-1,-1,-1,-1,-1,-1,-1,-1,-1,-1,-1,-1,-1,-1,-1,-1,-1,-1,-1,-1,-1,-1,-1,-1],"split_conditions":[-9.1033196E-1,-1.3480194E-1,-1.0560977E-3,-1.1096885E0,-0E0,8.9795E-4,-8.060336E-3,-0E0,3.864975E-2,-1.5283453E-2,-0E0,-7.192397E-4,1.5228572E-2,7.731904E-3,-1.4043707E-2,-0E0,-3.4275453E-3,-0E0,6.7506656E-2,-1.9077621E-2,-0E0,6.185968E-3,-0E0,-4.8408983E-3,9.856736E-3,1.9625673E-2,-0E0,-0E0,1.5728338E-2,-2.1959923E-2,-0E0],"split_indices":[58,13,47,13,4,2147483647,2147483647,126,72,2147483647,2147483647,2147483647,2147483647,2147483647,2147483647,2147483647,2147483647,2147483647,2147483647,2147483647,2147483647,2147483647,2147483647,2147483647,2147483647,2147483647,2147483647,2147483647,2147483647,2147483647,2147483647],"split_type":[0,0,0,0,0,0,0,0,0,0,0,0,0,0,0,0,0,0,0,0,0,0,0,0,0,0,0,0,0,0,0],"sum_hessian":[3.26E2,7.2E1,2.54E2,3.8E1,3.4E1,1.75E2,7.9E1,2E1,1.8E1,6E0,2.8E1,1.44E2,3.1E1,1.2E1,6.7E1,1E1,1E1,1E1,8E0,5E0,1E0,1.9E1,9E0,1.18E2,2.6E1,2.6E1,5E0,2E0,1E1,4.9E1,1.8E1],"tree_param":{"num_deleted":"24","num_feature":"178","num_nodes":"31","size_leaf_vector":"0"}},{"base_weights":[-0E0,-2.9176045E-3,5.554584E-2,-1.8328661E-2,5.1097786E-3,1.2914915E-1,-0E0,-4.357436E-2,-0E0,-0E0,4.6829745E-2,-0E0,1.5242898E-1,-0E0,-6.3893706E-2,-1.5105622E-2,1.3470197E-2,-3.1540684E-2,7.1255877E-3,6.8066776E-2,-0E0],"categories":[],"categories_nodes":[],"categories_segments":[],"categories_sizes":[],"default_left":[1,1,1,1,1,1,1,1,1,1,1,1,1,1,1,1,1,1,1,1,1],"id":33,"left_children":[-1,-1,-1,-1,-1,-1,-1,-1,-1,-1,-1,-1,-1,-1,-1,-1,-1,-1,-1,-1,-1],"loss_changes":[3.3586916E-2,4.902508E-2,6.922813E-2,5.9297536E-2,4.1328367E-2,1.6098127E-2,0E0,7.7380374E-2,1.7297896E-2,3.7389454E-2,3.2709736E-2,0E0,0E0,0E0,0E0,0E0,0E0,0E0,0E0,0E0,0E0],"parents":[2147483647,0,0,1,1,2,2,3,3,4,4,5,5,7,7,8,8,9,9,10,10],"right_children":[-1,-1,-1,-1,-1,-1,-1,-1,-1,-1,-1,-1,-1,-1,-1,-1,-1,-1,-1,-1,-1],"split_conditions":[-0E0,-8.752814E-4,1.6663752E-2,-5.4985983E-3,1.5329337E-3,3.8744748E-2,-0E0,-1.3072308E-2,-0E0,-0E0,1.4048924E-2,-0E0,4.57287E-2,-0E0,-1.9168112E-2,-4.5316867E-3,4.0410594E-3,-9.462206E-3,2.1376763E-3,2.0420033E-2,-0E0],"split_indices":[25,2147483647,2147483647,2147483647,2147483647,2147483647,2147483647,2147483647,2147483647,2147483647,2147483647,2147483647,2147483647,2147483647,2147483647,2147483647,2147483647,2147483647,2147483647,2147483647,2147483647],"split_type":[0,0,0,0,0,0,0,0,0,0,0,0,0,0,0,0,0,0,0,0,0],"sum_hessian":[3.31E2,3.21E2,1E1,1.4E2,1.81E2,6E0,4E0,5.6E1,8.4E1,1.6E2,2.1E1,1E0,5E0,1.1E1,4.5E1,4.4E1,4E1,3.1E1,1.29E2,1.7E1,4E0],"tree_param":{"num_deleted":"20","num_feature":"178","num_nodes":"21","size_leaf_vector":"0"}},{"base_weights":[-0E0,-7.932944E-3,1.3542709E-2,7.177528E-3,-1.7871242E-2,3.8226645E-2,-5.474629E-3,-6.1974665E-3,6.5143906E-2,-3.675034E-2,-0E0,-0E0,5.129203E-2,-2.6504418E-2,2.2237606E-2,-0E0,-5.723917E-2,8.4389135E-2,-0E0,-6.270054E-2,-0E0,5.516324E-2,-0E0,-0E0,5.79747E-2,-6.1878223E-2,-0E0,-0E0,4.9297564E-2],"categories":[],"categories_nodes":[],"categories_segments":[],"categories_sizes":[],"default_left":[1,1,1,1,1,1,1,1,1,1,1,1,1,1,1,1,1,1,1,1,1,1,1,1,1,1,1,1,1],"id":34,"left_children":[-1,-1,-1,-1,-1,-1,-1,-1,-1,-1,-1,-1,-1,-1,-1,-1,-1,-1,-1,-1,-1,-1,-1,-1,-1,-1,-1,-1,-1],"loss_changes":[3.741978E-2,3.862051E-2,8.551036E-2,8.339996E-2,7.133731E-2,5.7610862E-2,3.739093E-2,2.4905762E-2,4.331384E-2,8.422913E-2,1.8258907E-2,0E0,3.9280325E-2,4.2860083E-2,1.6433267E-2,0E0,0E0,0E0,0E0,0E0,0E0,0E0,0E0,0E0,0E0,0E0,0E0,0E0,0E0],"parents":[2147483647,0,0,1,1,2,2,3,3,4,4,5,5,6,6,7,7,8,8,9,9,10,10,12,12,13,13,14,14],"right_children":[-1,-1,-1,-1,-1,-1,-1,-1,-1,-1,-1,-1,-1,-1,-1,-1,-1,-1,-1,-1,-1,-1,-1,-1,-1,-1,-1,-1,-1],"split_conditions":[-0E0,-2.3798833E-3,4.062813E-3,2.1532585E-3,-5.3613726E-3,1.1467994E-2,-1.6423888E-3,-1.85924E-3,1.9543173E-2,-1.1025102E-2,-0E0,-0E0,1.5387609E-2,-7.951326E-3,6.671282E-3,-0E0,-1.7171752E-2,2.5316741E-2,-0E0,-1.8810162E-2,-0E0,1.6548973E-2,-0E0,-0E0,1.739241E-2,-1.8563468E-2,-0E0,-0E0,1.4789269E-2],"split_indices":[93,2147483647,2147483647,2147483647,2147483647,2147483647,2147483647,2147483647,2147483647,2147483647,2147483647,2147483647,2147483647,2147483647,2147483647,2147483647,2147483647,2147483647,2147483647,2147483647,2147483647,2147483647,2147483647,2147483647,2147483647,2147483647,2147483647,2147483647,2147483647],"split_type":[0,0,0,0,0,0,0,0,0,0,0,0,0,0,0,0,0,0,0,0,0,0,0,0,0,0,0,0,0],"sum_hessian":[3.4E2,2.07E2,1.33E2,5.4E1,1.53E2,7.4E1,5.9E1,3.4E1,2E1,8.9E1,6.4E1,1.1E1,6.3E1,4.8E1,1.1E1,2.6E1,8E0,1.8E1,2E0,5.2E1,3.7E1,6E0,5.8E1,2E0,6.1E1,2E1,2.8E1,2E0,9E0],"tree_param":{"num_deleted":"28","num_feature":"178","num_nodes":"29","size_leaf_vector":"0"}},{"base_weights":[-0E0,-2.1102842E-2,4.8374026E-3,-8.4679775E-2,-0E0,5.7339005E-2,-0E0,-1.2807168E-1,-0E0,-1.2998073E-2,1.5271832E-2,-0E0,1.1141219E-1,-5.2835834E-3,5.1383294E-2,-0E0,-1.6314386E-1,-0E0,-4.4736367E-2,-0E0,3.49479E-2,-0E0,1.458671E-2,1.2760691E-1,-0E0,-3.4499288E-2,-0E0,-0E0,8.061975E-2],"categories":[],"categories_nodes":[],"categories_segments":[],"categories_sizes":[],"default_left":[1,1,1,1,1,1,1,1,1,1,1,1,1,1,1,1,1,1,1,1,1,1,1,1,1,1,1,1,1],"id":35,"left_children":[-1,-1,-1,-1,-1,-1,-1,-1,-1,-1,-1,-1,-1,-1,-1,-1,-1,-1,-1,-1,-1,-1,-1,-1,-1,-1,-1,-1,-1],"loss_changes":[3.8124632E-2,9.701042E-2,9.586097E-2,5.1357016E-2,1.0730403E-2,7.185989E-2,3.7713714E-2,5.912076E-2,0E0,3.7129257E-2,2.1039426E-2,2.1277915E-3,2.1626085E-2,5.5860914E-2,3.3313807E-2,0E0,0E0,0E0,0E0,0E0,0E0,0E0,0E0,0E0,0E0,0E0,0E0,0E0,0E0],"parents":[2147483647,0,0,1,1,2,2,3,3,4,4,5,5,6,6,7,7,9,9,10,10,11,11,12,12,13,13,14,14],"right_children":[-1,-1,-1,-1,-1,-1,-1,-1,-1,-1,-1,-1,-1,-1,-1,-1,-1,-1,-1,-1,-1,-1,-1,-1,-1,-1,-1,-1,-1],"split_conditions":[-0E0,-6.330853E-3,1.4512208E-3,-2.5403934E-2,-0E0,1.7201703E-2,-0E0,-3.8421504E-2,-0E0,-3.8994222E-3,4.5815497E-3,-0E0,3.342366E-2,-1.585075E-3,1.5414989E-2,-0E0,-4.894316E-2,-0E0,-1.3420911E-2,-0E0,1.04843695E-2,-0E0,4.3760133E-3,3.8282074E-2,-0E0,-1.0349787E-2,-0E0,-0E0,2.4185928E-2],"split_indices":[26,2147483647,2147483647,2147483647,2147483647,2147483647,2147483647,2147483647,2147483647,2147483647,2147483647,2147483647,2147483647,2147483647,2147483647,2147483647,2147483647,2147483647,2147483647,2147483647,2147483647,2147483647,2147483647,2147483647,2147483647,2147483647,2147483647,2147483647,2147483647],"split_type":[0,0,0,0,0,0,0,0,0,0,0,0,0,0,0,0,0,0,0,0,0,0,0,0,0,0,0,0,0],"sum_hessian":[3.31E2,7.2E1,2.59E2,1.8E1,5.4E1,3.1E1,2.28E2,1.1E1,7E0,2.9E1,2.5E1,1.7E1,1.4E1,2.16E2,1.2E1,2E0,9E0,8E0,2.1E1,3E0,2.2E1,7E0,1E1,1.2E1,2E0,5.2E1,1.64E2,2E0,1E1],"tree_param":{"num_deleted":"28","num_feature":"178","num_nodes":"29","size_leaf_vector":"0"}},{"base_weights":[-0E0,-3.8557486E-3,3.130127E-2,-1.9450154E-2,4.650246E-3,-0E0,9.257961E-2,2.4144764E-3,-6.2133197E-2,5.9455704E-2,-0E0,1.0614526E-1,-0E0,7.984151E-2,-0E0,-7.690954E-2,-0E0,7.736476E-2,-0E0,-1.721969E-2,1.5377706E-2],"categories":[],"categories_nodes":[],"categories_segments":[],"categories_sizes":[],"default_left":[1,1,1,1,1,1,1,1,1,1,1,1,1,1,1,1,1,1,1,1,1],"id":36,"left_children":[1,3,-1,7,-1,-1,-1,-1,-1,-1,-1,-1,-1,-1,-1,-1,-1,-1,-1,-1,-1],"loss_changes":[3.3037223E-2,5.1680893E-2,7.444101E-2,1.7179947E-1,7.0516296E-2,0E0,9.81725E-3,5.690191E-2,6.592846E-2,2.751641E-2,4.081146E-2,0E0,0E0,0E0,0E0,0E0,0E0,0E0,0E0,0E0,0E0],"parents":[2147483647,0,0,1,1,2,2,3,3,4,4,6,6,7,7,8,8,9,9,10,10],"right_children":[2,4,-1,8,-1,-1,-1,-1,-1,-1,-1,-1,-1,-1,-1,-1,-1,-1,-1,-1,-1],"split_conditions":[1.392227E0,-1.6548955E-1,9.390382E-3,-3.6505288E-1,1.3950738E-3,-0E0,2.7773885E-2,7.2434294E-4,-1.863996E-2,1.7836712E-2,-0E0,3.184358E-2,-0E0,2.3952454E-2,-0E0,-2.3072863E-2,-0E0,2.3209428E-2,-0E0,-5.1659076E-3,4.613312E-3],"split_indices":[87,88,8,37,96,2147483647,2147483647,14,19,2147483647,2147483647,2147483647,2147483647,2147483647,2147483647,2147483647,2147483647,2147483647,2147483647,2147483647,2147483647],"split_type":[0,0,0,0,0,0,0,0,0,0,0,0,0,0,0,0,0,0,0,0,0],"sum_hessian":[3.4E2,3.11E2,2.9E1,1.39E2,1.72E2,1.7E1,1.2E1,8.1E1,5.8E1,2.1E1,1.51E2,1E1,2E0,9E0,7.2E1,4.9E1,9E0,1.7E1,4E0,8.5E1,6.6E1],"tree_param":{"num_deleted":"14","num_feature":"178","num_nodes":"21","size_leaf_vector":"0"}},{"base_weights":[-3.6798482E-4,-4.7886437E-3,6.1008774E-2,-1.319854E-2,1.0487861E-2,-0E0,1.0048604E-1,-4.308916E-2,-0E0,-0E0,4.963003E-2,1.710828E-1,-0E0,-0E0,-8.434032E-2,-1.759472E-2,1.0081138E-2,-2.6221514E-2,2.8342241E-3,-0E0,6.554547E-2,-0E0,1.9320981E-1],"categories":[],"categories_nodes":[],"categories_segments":[],"categories_sizes":[],"default_left":[1,1,1,1,1,1,1,1,1,1,1,1,1,1,1,1,1,1,1,1,1,1,1],"id":37,"left_children":[-1,-1,-1,-1,-1,-1,-1,-1,-1,-1,-1,-1,-1,-1,-1,-1,-1,-1,-1,-1,-1,-1,-1],"loss_changes":[5.209586E-2,4.3792482E-2,3.6116816E-2,7.887612E-2,4.965655E-2,0E0,6.557342E-2,5.715006E-2,3.3797022E-2,1.1370826E-2,3.1105638E-2,2.976194E-3,0E0,0E0,0E0,0E0,0E0,0E0,0E0,0E0,0E0,0E0,0E0],"parents":[2147483647,0,0,1,1,2,2,3,3,4,4,6,6,7,7,8,8,9,9,10,10,11,11],"right_children":[-1,-1,-1,-1,-1,-1,-1,-1,-1,-1,-1,-1,-1,-1,-1,-1,-1,-1,-1,-1,-1,-1,-1],"split_conditions":[-1.1039545E-4,-1.4365931E-3,1.8302632E-2,-3.959562E-3,3.1463585E-3,-0E0,3.0145813E-2,-1.2926748E-2,-0E0,-0E0,1.488901E-2,5.132484E-2,-0E0,-0E0,-2.5302097E-2,-5.278416E-3,3.0243418E-3,-7.866454E-3,8.502673E-4,-0E0,1.9663641E-2,-0E0,5.7962947E-2],"split_indices":[83,2147483647,2147483647,2147483647,2147483647,2147483647,2147483647,2147483647,2147483647,2147483647,2147483647,2147483647,2147483647,2147483647,2147483647,2147483647,2147483647,2147483647,2147483647,2147483647,2147483647,2147483647,2147483647],"split_type":[0,0,0,0,0,0,0,0,0,0,0,0,0,0,0,0,0,0,0,0,0,0,0],"sum_hessian":[3.38E2,3.26E2,1.2E1,2.4E2,8.6E1,4E0,8E0,6.5E1,1.75E2,6.2E1,2.4E1,5E0,3E0,4E1,2.5E1,7.7E1,9.8E1,1.6E1,4.6E1,3E0,2.1E1,1E0,4E0],"tree_param":{"num_deleted":"22","num_feature":"178","num_nodes":"23","size_leaf_vector":"0"}},{"base_weights":[-0E0,-2.043498E-2,7.032029E-3,-0E0,-5.5972684E-2,5.491675E-2,-0E0,2.243854E-2,-0E0,-6.5669574E-2,-0E0,8.368543E-2,-0E0,-1.4032118E-2,1.092426E-2,-0E0,4.8079457E-2,-1.935473E-2,-0E0,-8.4025875E-2,-0E0,-0E0,9.659306E-2,-3.6935054E-2,1.0636541E-2,-6.08148E-3,2.4309482E-2],"categories":[],"categories_nodes":[],"categories_segments":[],"categories_sizes":[],"default_left":[1,1,1,1,1,1,1,1,1,1,1,1,1,1,1,1,1,1,1,1,1,1,1,1,1,1,1],"id":38,"left_children":[-1,-1,-1,-1,-1,-1,-1,-1,-1,-1,-1,-1,-1,-1,-1,-1,-1,-1,-1,-1,-1,-1,-1,-1,-1,-1,-1],"loss_changes":[4.36871E-2,8.543578E-2,7.124177E-2,9.56644E-3,3.501881E-2,6.26258E-2,3.5580277E-2,1.8173937E-2,4.869997E-3,5.381374E-2,0E0,1.1546224E-2,0E0,6.994372E-2,4.653208E-2,0E0,0E0,0E0,0E0,0E0,0E0,0E0,0E0,0E0,0E0,0E0,0E0],"parents":[2147483647,0,0,1,1,2,2,3,3,4,4,5,5,6,6,7,7,8,8,9,9,11,11,13,13,14,14],"right_children":[-1,-1,-1,-1,-1,-1,-1,-1,-1,-1,-1,-1,-1,-1,-1,-1,-1,-1,-1,-1,-1,-1,-1,-1,-1,-1,-1],"split_conditions":[-0E0,-6.130494E-3,2.1096088E-3,-0E0,-1.6791806E-2,1.6475026E-2,-0E0,6.731562E-3,-0E0,-1.9700874E-2,-0E0,2.510563E-2,-0E0,-4.209636E-3,3.2772783E-3,-0E0,1.4423838E-2,-5.8064195E-3,-0E0,-2.5207764E-2,-0E0,-0E0,2.897792E-2,-1.10805165E-2,3.1909624E-3,-1.824444E-3,7.292845E-3],"split_indices":[26,2147483647,2147483647,2147483647,2147483647,2147483647,2147483647,2147483647,2147483647,2147483647,2147483647,2147483647,2147483647,2147483647,2147483647,2147483647,2147483647,2147483647,2147483647,2147483647,2147483647,2147483647,2147483647,2147483647,2147483647,2147483647,2147483647],"split_type":[0,0,0,0,0,0,0,0,0,0,0,0,0,0,0,0,0,0,0,0,0,0,0,0,0,0,0],"sum_hessian":[3.4E2,7.3E1,2.67E2,3.6E1,3.7E1,2.8E1,2.39E2,1.9E1,1.7E1,3.5E1,2E0,2.1E1,7E0,9.1E1,1.48E2,7E0,1.2E1,1.3E1,4E0,2.9E1,6E0,4E0,1.7E1,6.2E1,2.9E1,4.2E1,1.06E2],"tree_param":{"num_deleted":"26","num_feature":"178","num_nodes":"27","size_leaf_vector":"0"}},{"base_weights":[-0E0,-2.4473623E-3,6.1119173E-2,4.3956977E-3,-1.977737E-2,-0E0,1.2573364E-1,-2.0125775E-2,1.2578897E-2,-4.5559365E-2,4.2531965E-3,1.9332023E-1,-0E0,-5.5517532E-2,-0E0,2.1315143E-2,-0E0,-6.490326E-2,-0E0,5.2365594E-2,-0E0],"categories":[],"categories_nodes":[],"categories_segments":[],"categories_sizes":[],"default_left":[1,1,1,1,1,1,1,1,1,1,1,1,1,1,1,1,1,1,1,1,1],"id":39,"left_children":[-1,-1,-1,-1,-1,-1,-1,-1,-1,-1,-1,-1,-1,-1,-1,-1,-1,-1,-1,-1,-1],"loss_changes":[4.679246E-2,4.973554E-2,6.5840006E-2,3.601946E-2,1.0469021E-1,0E0,3.8835347E-2,4.9493406E-2,2.9852444E-2,1.0122383E-1,3.202037E-2,0E0,0E0,0E0,0E0,0E0,0E0,0E0,0E0,0E0,0E0],"parents":[2147483647,0,0,1,1,2,2,3,3,4,4,6,6,7,7,8,8,9,9,10,10],"right_children":[-1,-1,-1,-1,-1,-1,-1,-1,-1,-1,-1,-1,-1,-1,-1,-1,-1,-1,-1,-1,-1],"split_conditions":[-0E0,-7.3420873E-4,1.8335752E-2,1.3187093E-3,-5.9332117E-3,-0E0,3.7720095E-2,-6.0377326E-3,3.7736692E-3,-1.366781E-2,1.275959E-3,5.7996072E-2,-0E0,-1.665526E-2,-0E0,6.394543E-3,-0E0,-1.9470979E-2,-0E0,1.570968E-2,-0E0],"split_indices":[83,2147483647,2147483647,2147483647,2147483647,2147483647,2147483647,2147483647,2147483647,2147483647,2147483647,2147483647,2147483647,2147483647,2147483647,2147483647,2147483647,2147483647,2147483647,2147483647,2147483647],"split_type":[0,0,0,0,0,0,0,0,0,0,0,0,0,0,0,0,0,0,0,0,0],"sum_hessian":[3.4E2,3.28E2,1.2E1,2.06E2,1.22E2,5E0,7E0,3E1,1.76E2,7.3E1,4.9E1,4E0,3E0,2E1,1E1,1.27E2,4.9E1,6E1,1.3E1,1.2E1,3.7E1],"tree_param":{"num_deleted":"20","num_feature":"178","num_nodes":"21","size_leaf_vector":"0"}},{"base_weights":[-0E0,-1.3944145E-3,6.522968E-2,-2.3502495E-2,1.10977E-3,-0E0,1.3290922E-1,-5.07705E-2,-0E0,4.1656792E-2,-0E0,1.9332023E-1,-0E0,-8.312426E-2,-0E0,2.6246747E-2,-0E0,5.070562E-2,-0E0,-1.3802142E-2,4.7462257E-3],"categories":[],"categories_nodes":[],"categories_segments":[],"categories_sizes":[],"default_left":[1,1,1,1,1,1,1,1,1,1,1,1,1,1,1,1,1,1,1,1,1],"id":40,"left_children":[-1,-1,-1,-1,-1,-1,-1,-1,-1,-1,-1,-1,-1,-1,-1,-1,-1,-1,-1,-1,-1],"loss_changes":[4.318828E-2,3.3936795E-2,6.344451E-2,6.6282004E-2,2.5702298E-2,0E0,4.35082E-2,1.0676262E-1,8.95582E-3,4.8236717E-3,1.9428004E-2,0E0,0E0,0E0,0E0,0E0,0E0,0E0,0E0,0E0,0E0],"parents":[2147483647,0,0,1,1,2,2,3,3,4,4,6,6,7,7,8,8,9,9,10,10],"right_children":[-1,-1,-1,-1,-1,-1,-1,-1,-1,-1,-1,-1,-1,-1,-1,-1,-1,-1,-1,-1,-1],"split_conditions":[-0E0,-4.1832434E-4,1.9568903E-2,-7.050749E-3,3.3293103E-4,-0E0,3.987277E-2,-1.523115E-2,-0E0,1.2497039E-2,-0E0,5.7996072E-2,-0E0,-2.4937278E-2,-0E0,7.874024E-3,-0E0,1.52116865E-2,-0E0,-4.140643E-3,1.4238678E-3],"split_indices":[83,2147483647,2147483647,2147483647,2147483647,2147483647,2147483647,2147483647,2147483647,2147483647,2147483647,2147483647,2147483647,2147483647,2147483647,2147483647,2147483647,2147483647,2147483647,2147483647,2147483647],"split_type":[0,0,0,0,0,0,0,0,0,0,0,0,0,0,0,0,0,0,0,0,0],"sum_hessian":[3.38E2,3.28E2,1E1,6.2E1,2.66E2,4E0,6E0,3.9E1,2.3E1,1.5E1,2.51E2,4E0,2E0,3E1,9E0,1.3E1,1E1,1.2E1,3E0,8.2E1,1.69E2],"tree_param":{"num_deleted":"20","num_feature":"178","num_nodes":"21","size_leaf_vector":"0"}},{"base_weights":[-5.4685684E-4,-1.4352909E-2,6.794214E-3,-4.6329096E-2,-0E0,-0E0,4.2720035E-2,-1.17464826E-1,-0E0,-8.317855E-3,1.1152691E-2,1.8123155E-2,-1.2053066E-2,7.1096614E-2,-0E0,-0E0,-1.4740598E-1,8.282305E-3,-0E0,-0E0,-2.7191937E-2,-0E0,4.7231115E-2,-0E0,3.2164715E-2,-3.0173762E-2,-0E0,8.388627E-2,-0E0,-0E0,-2.3494275E-2],"categories":[],"categories_nodes":[],"categories_segments":[],"categories_sizes":[],"default_left":[1,1,1,1,1,1,1,1,1,1,1,1,1,1,1,1,1,1,1,1,1,1,1,1,1,1,1,1,1,1,1],"id":41,"left_children":[1,3,-1,7,-1,-1,-1,-1,-1,-1,-1,-1,-1,-1,-1,-1,-1,-1,-1,-1,-1,-1,-1,-1,-1,-1,-1,-1,-1,-1,-1],"loss_changes":[3.968394E-2,6.7627445E-2,6.614732E-2,1.7722984E-1,9.638088E-3,2.9232198E-2,9.703676E-2,1.1515638E-1,1.5777439E-3,1.789269E-2,2.8113924E-2,1.6914006E-2,4.042932E-2,3.924714E-2,3.312069E-3,0E0,0E0,0E0,0E0,0E0,0E0,0E0,0E0,0E0,0E0,0E0,0E0,0E0,0E0,0E0,0E0],"parents":[2147483647,0,0,1,1,2,2,3,3,4,4,5,5,6,6,7,7,8,8,9,9,10,10,11,11,12,12,13,13,14,14],"right_children":[2,4,-1,8,-1,-1,-1,-1,-1,-1,-1,-1,-1,-1,-1,-1,-1,-1,-1,-1,-1,-1,-1,-1,-1,-1,-1,-1,-1,-1,-1],"split_conditions":[-3.0400163E-1,-9.9206194E-2,2.0382642E-3,4.476598E-1,-0E0,-0E0,1.2816011E-2,-3.523945E-2,-0E0,-2.4953566E-3,3.3458075E-3,5.4369466E-3,-3.61592E-3,2.1328986E-2,-0E0,-0E0,-4.4221796E-2,2.4846916E-3,-0E0,-0E0,-8.157581E-3,-0E0,1.4169335E-2,-0E0,9.649415E-3,-9.0521285E-3,-0E0,2.5165884E-2,-0E0,-0E0,-7.048283E-3],"split_indices":[93,125,101,84,86,2147483647,2147483647,96,40,2147483647,2147483647,2147483647,2147483647,2147483647,2147483647,2147483647,2147483647,2147483647,2147483647,2147483647,2147483647,2147483647,2147483647,2147483647,2147483647,2147483647,2147483647,2147483647,2147483647,2147483647,2147483647],"split_type":[0,0,0,0,0,0,0,0,0,0,0,0,0,0,0,0,0,0,0,0,0,0,0,0,0,0,0,0,0,0,0],"sum_hessian":[3.39E2,1.51E2,1.88E2,4.6E1,1.05E2,1.47E2,4.1E1,2E1,2.6E1,6.2E1,4.3E1,4.3E1,1.04E2,3.4E1,7E0,2E0,1.8E1,2.3E1,3E0,3.2E1,3E1,2.8E1,1.5E1,1.3E1,3E1,6.1E1,4.3E1,3E1,4E0,1E0,6E0],"tree_param":{"num_deleted":"24","num_feature":"178","num_nodes":"31","size_leaf_vector":"0"}},{"base_weights":[-1.003302E-3,-1.0836982E-2,1.2197424E-2,-0E0,-2.8702673E-2,-0E0,6.2994435E-2,-3.1755385E-3,3.0191777E-2,-4.0212933E-2,-0E0,3.3388752E-2,-2.1068867E-2,-0E0,7.4600734E-2,-3.8508795E-2,-0E0,4.7069546E-2,-0E0,-5.1257465E-2,-0E0,-0E0,1.2748113E-2,7.103686E-2,-0E0,-3.3649348E-2,-0E0,8.15836E-2,-0E0],"categories":[],"categories_nodes":[],"categories_segments":[],"categories_sizes":[],"default_left":[1,1,1,1,1,1,1,1,1,1,1,1,1,1,1,1,1,1,1,1,1,1,1,1,1,1,1,1,1],"id":42,"left_children":[-1,-1,-1,-1,-1,-1,-1,-1,-1,-1,-1,-1,-1,-1,-1,-1,-1,-1,-1,-1,-1,-1,-1,-1,-1,-1,-1,-1,-1],"loss_changes":[4.2398635E-2,5.466517E-2,6.667251E-2,2.2885753E-2,5.6715406E-2,6.454798E-2,2.797164E-2,3.161649E-2,2.2434235E-2,5.6970805E-2,1.4626833E-3,7.59316E-2,3.1067535E-2,0E0,1.5156738E-2,0E0,0E0,0E0,0E0,0E0,0E0,0E0,0E0,0E0,0E0,0E0,0E0,0E0,0E0],"parents":[2147483647,0,0,1,1,2,2,3,3,4,4,5,5,6,6,7,7,8,8,9,9,10,10,11,11,12,12,14,14],"right_children":[-1,-1,-1,-1,-1,-1,-1,-1,-1,-1,-1,-1,-1,-1,-1,-1,-1,-1,-1,-1,-1,-1,-1,-1,-1,-1,-1,-1,-1],"split_conditions":[-3.0099062E-4,-3.2510948E-3,3.6592272E-3,-0E0,-8.610802E-3,-0E0,1.889833E-2,-9.5266156E-4,9.057534E-3,-1.206388E-2,-0E0,1.0016626E-2,-6.3206605E-3,-0E0,2.2380222E-2,-1.1552639E-2,-0E0,1.4120865E-2,-0E0,-1.537724E-2,-0E0,-0E0,3.824434E-3,2.131106E-2,-0E0,-1.0094805E-2,-0E0,2.447508E-2,-0E0],"split_indices":[80,2147483647,2147483647,2147483647,2147483647,2147483647,2147483647,2147483647,2147483647,2147483647,2147483647,2147483647,2147483647,2147483647,2147483647,2147483647,2147483647,2147483647,2147483647,2147483647,2147483647,2147483647,2147483647,2147483647,2147483647,2147483647,2147483647,2147483647,2147483647],"split_type":[0,0,0,0,0,0,0,0,0,0,0,0,0,0,0,0,0,0,0,0,0,0,0,0,0,0,0,0,0],"sum_hessian":[3.34E2,2.22E2,1.12E2,1.24E2,9.8E1,9.1E1,2.1E1,1E2,2.4E1,8.5E1,1.3E1,3.6E1,5.5E1,1E0,2E1,2.2E1,7.8E1,2E1,4E0,7.4E1,1.1E1,4E0,9E0,2.3E1,1.3E1,4.9E1,6E0,1.9E1,1E0],"tree_param":{"num_deleted":"28","num_feature":"178","num_nodes":"29","size_leaf_vector":"0"}},{"base_weights":[-0E0,-4.3592477E-4,5.581223E-2,-3.890634E-2,2.6478346E-3,1.2770538E-1,-0E0,-6.301334E-2,-0E0,4.662538E-2,-0E0,-0E0,1.5075906E-1,-1.0571068E-1,-0E0,-0E0,9.198119E-2,3.142654E-2,-6.967931E-3],"categories":[],"categories_nodes":[],"categories_segments":[],"categories_sizes":[],"default_left":[1,1,1,1,1,1,1,1,1,1,1,1,1,1,1,1,1,1,1],"id":43,"left_children":[-1,-1,-1,-1,-1,-1,-1,-1,-1,-1,-1,-1,-1,-1,-1,-1,-1,-1,-1],"loss_changes":[3.121265E-2,6.3984886E-2,6.67063E-2,5.7059407E-2,6.3234374E-2,1.579161E-2,0E0,5.9677906E-2,0E0,3.631077E-2,3.95172E-2,0E0,0E0,0E0,0E0,0E0,0E0,0E0,0E0],"parents":[2147483647,0,0,1,1,2,2,3,3,4,4,5,5,7,7,9,9,10,10],"right_children":[-1,-1,-1,-1,-1,-1,-1,-1,-1,-1,-1,-1,-1,-1,-1,-1,-1,-1,-1],"split_conditions":[-0E0,-1.3077744E-4,1.674367E-2,-1.1671903E-2,7.943504E-4,3.8311616E-2,-0E0,-1.8904002E-2,-0E0,1.3987615E-2,-0E0,-0E0,4.5227718E-2,-3.1713206E-2,-0E0,-0E0,2.7594358E-2,9.427963E-3,-2.0903794E-3],"split_indices":[25,2147483647,2147483647,2147483647,2147483647,2147483647,2147483647,2147483647,2147483647,2147483647,2147483647,2147483647,2147483647,2147483647,2147483647,2147483647,2147483647,2147483647,2147483647],"split_type":[0,0,0,0,0,0,0,0,0,0,0,0,0,0,0,0,0,0,0],"sum_hessian":[3.34E2,3.24E2,1E1,4.1E1,2.83E2,6E0,4E0,3E1,1.1E1,3E1,2.53E2,1E0,5E0,1.6E1,1.4E1,1.8E1,1.2E1,2.9E1,2.24E2],"tree_param":{"num_deleted":"18","num_feature":"178","num_nodes":"19","size_leaf_vector":"0"}},{"base_weights":[6.106919E-4,-0E0,7.8625046E-2,6.5117856E-3,-1.5780425E-2,1.1516163E-1,-0E0,-0E0,4.4023238E-2,-3.431671E-2,-0E0,-0E0,1.6945605E-1,5.420237E-3,-7.840965E-2,6.725439E-2,-0E0,-5.548423E-2,-0E0,4.8307072E-2,-0E0,1.915831E-1,-0E0],"categories":[],"categories_nodes":[],"categories_segments":[],"categories_sizes":[],"default_left":[1,1,1,1,1,1,1,1,1,1,1,1,1,1,1,1,1,1,1,1,1,1,1],"id":44,"left_children":[-1,-1,-1,-1,-1,-1,-1,-1,-1,-1,-1,-1,-1,-1,-1,-1,-1,-1,-1,-1,-1,-1,-1],"loss_changes":[6.7878366E-2,3.9317068E-2,3.8099073E-2,3.613741E-2,5.9799623E-2,3.7484273E-2,0E0,5.4122303E-2,5.0412014E-2,8.787562E-2,2.567008E-2,0E0,3.2422096E-3,0E0,0E0,0E0,0E0,0E0,0E0,0E0,0E0,0E0,0E0],"parents":[2147483647,0,0,1,1,2,2,3,3,4,4,5,5,7,7,8,8,9,9,10,10,12,12],"right_children":[-1,-1,-1,-1,-1,-1,-1,-1,-1,-1,-1,-1,-1,-1,-1,-1,-1,-1,-1,-1,-1,-1,-1],"split_conditions":[1.8320758E-4,-0E0,2.3587516E-2,1.9535357E-3,-4.734128E-3,3.454849E-2,-0E0,-0E0,1.3206972E-2,-1.0295014E-2,-0E0,-0E0,5.0836816E-2,1.6260712E-3,-2.3522897E-2,2.0176318E-2,-0E0,-1.664527E-2,-0E0,1.4492122E-2,-0E0,5.747493E-2,-0E0],"split_indices":[83,2147483647,2147483647,2147483647,2147483647,2147483647,2147483647,2147483647,2147483647,2147483647,2147483647,2147483647,2147483647,2147483647,2147483647,2147483647,2147483647,2147483647,2147483647,2147483647,2147483647,2147483647,2147483647],"split_type":[0,0,0,0,0,0,0,0,0,0,0,0,0,0,0,0,0,0,0,0,0,0,0],"sum_hessian":[3.34E2,3.23E2,1.1E1,1.99E2,1.24E2,8E0,3E0,1.76E2,2.3E1,7.7E1,4.7E1,3E0,5E0,1.68E2,8E0,2.1E1,2E0,5.8E1,1.9E1,1.1E1,3.6E1,4E0,1E0],"tree_param":{"num_deleted":"22","num_feature":"178","num_nodes":"23","size_leaf_vector":"0"}},{"base_weights":[-0E0,-1.0243292E-3,5.919875E-2,5.783692E-3,-1.818357E-2,-0E0,9.867604E-2,-5.232337E-4,2.7132334E-2,-0E0,-5.2498754E-2,1.6927284E-1,-0E0,-3.0124048E-2,4.3138117E-3,-0E0,5.270952E-2,-1.2301254E-2,7.473206E-2,-7.0508726E-2,-0E0,1.9139989E-1,-0E0],"categories":[],"categories_nodes":[],"categories_segments":[],"categories_sizes":[],"default_left":[1,1,1,1,1,1,1,1,1,1,1,1,1,1,1,1,1,1,1,1,1,1,1],"id":45,"left_children":[-1,-1,-1,-1,-1,-1,-1,-1,-1,-1,-1,-1,-1,-1,-1,-1,-1,-1,-1,-1,-1,-1,-1],"loss_changes":[4.2397115E-2,4.6820447E-2,3.5843853E-2,4.6216123E-2,8.6443916E-2,0E0,6.537705E-2,3.708567E-2,4.1458882E-2,8.213856E-2,6.710699E-2,3.2718629E-3,0E0,0E0,0E0,0E0,0E0,0E0,0E0,0E0,0E0,0E0,0E0],"parents":[2147483647,0,0,1,1,2,2,3,3,4,4,6,6,7,7,8,8,9,9,10,10,11,11],"right_children":[-1,-1,-1,-1,-1,-1,-1,-1,-1,-1,-1,-1,-1,-1,-1,-1,-1,-1,-1,-1,-1,-1,-1],"split_conditions":[-0E0,-3.072988E-4,1.7759625E-2,1.7351076E-3,-5.455071E-3,-0E0,2.9602813E-2,-1.5697013E-4,8.139701E-3,-0E0,-1.5749628E-2,5.0781853E-2,-0E0,-9.037214E-3,1.2941435E-3,-0E0,1.5812857E-2,-3.6903764E-3,2.2419618E-2,-2.115262E-2,-0E0,5.7419967E-2,-0E0],"split_indices":[83,2147483647,2147483647,2147483647,2147483647,2147483647,2147483647,2147483647,2147483647,2147483647,2147483647,2147483647,2147483647,2147483647,2147483647,2147483647,2147483647,2147483647,2147483647,2147483647,2147483647,2147483647,2147483647],"split_type":[0,0,0,0,0,0,0,0,0,0,0,0,0,0,0,0,0,0,0,0,0,0,0],"sum_hessian":[3.38E2,3.26E2,1.2E1,2.04E2,1.22E2,4E0,8E0,1.32E2,7.2E1,7.6E1,4.6E1,5E0,3E0,3.9E1,9.3E1,3.8E1,3.4E1,6.3E1,1.3E1,3.9E1,7E0,4E0,1E0],"tree_param":{"num_deleted":"22","num_feature":"178","num_nodes":"23","size_leaf_vector":"0"}},{"base_weights":[1.371431E-3,-0E0,5.919875E-2,4.179897E-3,-2.8208492E-2,1.481717E-1,-0E0,-0E0,4.1309863E-2,-6.0825814E-2,-0E0,1.9139989E-1,-0E0,1.703524E-2,-1.4024945E-2,-0E0,5.5806745E-2,-7.959071E-2,-0E0,2.8239692E-2,-0E0],"categories":[],"categories_nodes":[],"categories_segments":[],"categories_sizes":[],"default_left":[1,1,1,1,1,1,1,1,1,1,1,1,1,1,1,1,1,1,1,1,1],"id":46,"left_children":[-1,-1,-1,-1,-1,-1,-1,-1,-1,-1,-1,-1,-1,-1,-1,-1,-1,-1,-1,-1,-1],"loss_changes":[4.143439E-2,4.3690346E-2,6.772646E-2,4.478936E-2,6.460455E-2,3.6766298E-2,0E0,5.7118975E-2,2.8371647E-2,4.8439384E-2,6.3801063E-3,0E0,0E0,0E0,0E0,0E0,0E0,0E0,0E0,0E0,0E0],"parents":[2147483647,0,0,1,1,2,2,3,3,4,4,5,5,7,7,8,8,9,9,10,10],"right_children":[-1,-1,-1,-1,-1,-1,-1,-1,-1,-1,-1,-1,-1,-1,-1,-1,-1,-1,-1,-1,-1],"split_conditions":[4.1142933E-4,-0E0,1.7759625E-2,1.253969E-3,-8.462548E-3,4.445151E-2,-0E0,-0E0,1.239296E-2,-1.8247744E-2,-0E0,5.7419967E-2,-0E0,5.110572E-3,-4.2074835E-3,-0E0,1.6742025E-2,-2.3877213E-2,-0E0,8.471908E-3,-0E0],"split_indices":[83,2147483647,2147483647,2147483647,2147483647,2147483647,2147483647,2147483647,2147483647,2147483647,2147483647,2147483647,2147483647,2147483647,2147483647,2147483647,2147483647,2147483647,2147483647,2147483647,2147483647],"split_type":[0,0,0,0,0,0,0,0,0,0,0,0,0,0,0,0,0,0,0,0,0],"sum_hessian":[3.3E2,3.18E2,1.2E1,2.69E2,4.9E1,5E0,7E0,2.4E2,2.9E1,2.8E1,2.1E1,4E0,1E0,1.06E2,1.34E2,4E0,2.5E1,2.4E1,4E0,8E0,1.3E1],"tree_param":{"num_deleted":"20","num_feature":"178","num_nodes":"21","size_leaf_vector":"0"}},{"base_weights":[-0E0,-5.1895394E-3,2.112011E-2,5.431904E-2,-1.2415026E-2,-4.4961587E-2,4.4836562E-2,7.282273E-2,-0E0,-2.4604805E-2,4.209792E-3,-0E0,-7.044942E-2,6.411432E-2,-0E0,-0E0,9.1725044E-2,-5.077994E-2,-4.1082907E-3,4.5779563E-2,-1.0255263E-2,-0E0,8.064088E-2],"categories":[],"categories_nodes":[],"categories_segments":[],"categories_sizes":[],"default_left":[1,1,1,1,1,1,1,1,1,1,1,1,1,1,1,1,1,1,1,1,1,1,1],"id":47,"left_children":[-1,-1,-1,-1,-1,-1,-1,-1,-1,-1,-1,-1,-1,-1,-1,-1,-1,-1,-1,-1,-1,-1,-1],"loss_changes":[3.411595E-2,8.785912E-2,9.39465E-2,3.4093715E-2,6.584415E-2,1.8570468E-2,5.9890024E-2,3.604976E-2,0E0,5.306746E-2,7.493924E-2,0E0,0E0,6.3178286E-2,0E0,0E0,0E0,0E0,0E0,0E0,0E0,0E0,0E0],"parents":[2147483647,0,0,1,1,2,2,3,3,4,4,5,5,6,6,7,7,9,9,10,10,13,13],"right_children":[-1,-1,-1,-1,-1,-1,-1,-1,-1,-1,-1,-1,-1,-1,-1,-1,-1,-1,-1,-1,-1,-1,-1],"split_conditions":[-0E0,-1.5568619E-3,6.3360333E-3,1.6295712E-2,-3.724508E-3,-1.3488476E-2,1.3450969E-2,2.184682E-2,-0E0,-7.3814415E-3,1.2629376E-3,-0E0,-2.1134827E-2,1.9234296E-2,-0E0,-0E0,2.7517514E-2,-1.5233982E-2,-1.2324873E-3,1.3733869E-2,-3.0765792E-3,-0E0,2.4192266E-2],"split_indices":[94,2147483647,2147483647,2147483647,2147483647,2147483647,2147483647,2147483647,2147483647,2147483647,2147483647,2147483647,2147483647,2147483647,2147483647,2147483647,2147483647,2147483647,2147483647,2147483647,2147483647,2147483647,2147483647],"split_type":[0,0,0,0,0,0,0,0,0,0,0,0,0,0,0,0,0,0,0,0,0,0,0],"sum_hessian":[3.33E2,2.73E2,6E1,1.9E1,2.54E2,8E0,5.2E1,1.7E1,2E0,1.71E2,8.3E1,1E0,7E0,4E1,1.2E1,2E0,1.5E1,6E1,1.11E2,3.4E1,4.9E1,5E0,3.5E1],"tree_param":{"num_deleted":"22","num_feature":"178","num_nodes":"23","size_leaf_vector":"0"}},{"base_weights":[-0E0,-5.321811E-3,1.2727134E-2,-1.3970624E-2,1.7712662E-2,-0E0,5.0591573E-2,-7.6523885E-2,-4.473999E-3,-5.80009E-3,5.295331E-2,-8.018993E-3,1.9837063E-2,6.627902E-2,-0E0,-0E0,-1.0434398E-1,-0E0,-1.0063283E-1,-3.9219506E-2,-0E0,6.98535E-2,-0E0,-0E0,-2.1644218E-2,-0E0,4.4451274E-2,7.122681E-2,-0E0],"categories":[],"categories_nodes":[],"categories_segments":[],"categories_sizes":[],"default_left":[1,1,1,1,1,1,1,1,1,1,1,1,1,1,1,1,1,1,1,1,1,1,1,1,1,1,1,1,1],"id":48,"left_children":[-1,-1,-1,-1,-1,-1,-1,-1,-1,-1,-1,-1,-1,-1,-1,-1,-1,-1,-1,-1,-1,-1,-1,-1,-1,-1,-1,-1,-1],"loss_changes":[2.395124E-2,4.2785875E-2,6.69707E-2,5.4609805E-2,6.6368476E-2,8.444224E-3,5.171702E-2,6.459043E-2,7.75562E-2,1.3440335E-2,3.859549E-2,1.1812715E-2,1.3455167E-2,1.601784E-2,0E0,0E0,0E0,0E0,0E0,0E0,0E0,0E0,0E0,0E0,0E0,0E0,0E0,0E0,0E0],"parents":[2147483647,0,0,1,1,2,2,3,3,4,4,5,5,6,6,7,7,8,8,9,9,10,10,11,11,12,12,13,13],"right_children":[-1,-1,-1,-1,-1,-1,-1,-1,-1,-1,-1,-1,-1,-1,-1,-1,-1,-1,-1,-1,-1,-1,-1,-1,-1,-1,-1,-1,-1],"split_conditions":[-0E0,-1.5965434E-3,3.8181404E-3,-4.191187E-3,5.313799E-3,-0E0,1.51774725E-2,-2.2957167E-2,-1.3421997E-3,-1.740027E-3,1.5885994E-2,-2.405698E-3,5.951119E-3,1.9883705E-2,-0E0,-0E0,-3.1303197E-2,-0E0,-3.0189851E-2,-1.1765853E-2,-0E0,2.095605E-2,-0E0,-0E0,-6.4932657E-3,-0E0,1.3335383E-2,2.1368045E-2,-0E0],"split_indices":[99,2147483647,2147483647,2147483647,2147483647,2147483647,2147483647,2147483647,2147483647,2147483647,2147483647,2147483647,2147483647,2147483647,2147483647,2147483647,2147483647,2147483647,2147483647,2147483647,2147483647,2147483647,2147483647,2147483647,2147483647,2147483647,2147483647,2147483647,2147483647],"split_type":[0,0,0,0,0,0,0,0,0,0,0,0,0,0,0,0,0,0,0,0,0,0,0,0,0,0,0,0,0],"sum_hessian":[3.36E2,2.28E2,1.08E2,1.88E2,4E1,7.5E1,3.3E1,1.5E1,1.73E2,1.2E1,2.8E1,6.4E1,1.1E1,3.1E1,2E0,1E0,1.4E1,1.65E2,8E0,9E0,3E0,2.4E1,4E0,3E1,3.4E1,2E0,9E0,3E1,1E0],"tree_param":{"num_deleted":"28","num_feature":"178","num_nodes":"29","size_leaf_vector":"0"}},{"base_weights":[-0E0,-1.311378E-3,3.5817686E-2,-7.522477E-3,1.6770147E-2,-0E0,8.3869964E-2,-8.881873E-2,-3.620166E-4,6.029255E-2,-0E0,-0E0,9.6730076E-2,-1.4731888E-1,-0E0,3.5848012E-4,-2.3474751E-2,-0E0,9.2087895E-2,-4.754713E-2,-0E0,1.01903E-1,-0E0],"categories":[],"categories_nodes":[],"categories_segments":[],"categories_sizes":[],"default_left":[1,1,1,1,1,1,1,1,1,1,1,1,1,1,1,1,1,1,1,1,1,1,1],"id":49,"left_children":[-1,-1,-1,-1,-1,-1,-1,-1,-1,-1,-1,-1,-1,-1,-1,-1,-1,-1,-1,-1,-1,-1,-1],"loss_changes":[3.388739E-2,2.8186815E-2,5.8090556E-2,8.793259E-2,6.954863E-2,0E0,1.1480331E-2,9.27763E-2,2.0384165E-2,7.751561E-2,2.4868779E-2,0E0,9.1876835E-4,0E0,0E0,0E0,0E0,0E0,0E0,0E0,0E0,0E0,0E0],"parents":[2147483647,0,0,1,1,2,2,3,3,4,4,6,6,7,7,8,8,9,9,10,10,12,12],"right_children":[-1,-1,-1,-1,-1,-1,-1,-1,-1,-1,-1,-1,-1,-1,-1,-1,-1,-1,-1,-1,-1,-1,-1],"split_conditions":[-0E0,-3.9341341E-4,1.07453065E-2,-2.2567431E-3,5.031044E-3,-0E0,2.516099E-2,-2.664562E-2,-1.0860499E-4,1.8087765E-2,-0E0,-0E0,2.9019024E-2,-4.4195667E-2,-0E0,1.0754404E-4,-7.0424257E-3,-0E0,2.762637E-2,-1.426414E-2,-0E0,3.05709E-2,-0E0],"split_indices":[87,2147483647,2147483647,2147483647,2147483647,2147483647,2147483647,2147483647,2147483647,2147483647,2147483647,2147483647,2147483647,2147483647,2147483647,2147483647,2147483647,2147483647,2147483647,2147483647,2147483647,2147483647,2147483647],"split_type":[0,0,0,0,0,0,0,0,0,0,0,0,0,0,0,0,0,0,0,0,0,0,0],"sum_hessian":[3.35E2,3.09E2,2.6E1,2.59E2,5E1,1.3E1,1.3E1,1.3E1,2.46E2,2.3E1,2.7E1,2E0,1.1E1,9E0,4E0,2.09E2,3.7E1,4E0,1.9E1,1.1E1,1.6E1,1E1,1E0],"tree_param":{"num_deleted":"22","num_feature":"178","num_nodes":"23","size_leaf_vector":"0"}},{"base_weights":[-0E0,-1.851716E-2,4.9836775E-3,-0E0,-4.601499E-2,-0E0,6.764558E-2,-0E0,1.6906906E-2,-5.783466E-2,-0E0,-1.2709555E-2,1.4868281E-2,1.7784216E-1,-0E0,-0E0,5.736934E-2,-7.090054E-2,-0E0,-9.273001E-2,-1.0442351E-3,3.853625E-2,-8.307293E-3,-0E0,2.3236056E-1,-0E0,1.1762038E-2],"categories":[],"categories_nodes":[],"categories_segments":[],"categories_sizes":[],"default_left":[1,1,1,1,1,1,1,1,1,1,1,1,1,1,1,1,1,1,1,1,1,1,1,1,1,1,1],"id":50,"left_children":[-1,-1,-1,-1,-1,-1,-1,-1,-1,-1,-1,-1,-1,-1,-1,-1,-1,-1,-1,-1,-1,-1,-1,-1,-1,-1,-1],"loss_changes":[3.161256E-2,6.601728E-2,9.866595E-2,6.8603377E-3,3.9402142E-2,4.5222964E-2,1.1615754E-1,0E0,3.5926893E-2,4.5492515E-2,0E0,6.367895E-2,7.77969E-2,4.8569754E-2,1.3835013E-3,0E0,0E0,0E0,0E0,0E0,0E0,0E0,0E0,0E0,0E0,0E0,0E0],"parents":[2147483647,0,0,1,1,2,2,3,3,4,4,5,5,6,6,8,8,9,9,11,11,12,12,13,13,14,14],"right_children":[-1,-1,-1,-1,-1,-1,-1,-1,-1,-1,-1,-1,-1,-1,-1,-1,-1,-1,-1,-1,-1,-1,-1,-1,-1,-1,-1],"split_conditions":[-0E0,-5.5551482E-3,1.4951034E-3,-0E0,-1.3804498E-2,-0E0,2.0293675E-2,-0E0,5.072072E-3,-1.7350398E-2,-0E0,-3.8128668E-3,4.4604843E-3,5.335265E-2,-0E0,-0E0,1.7210802E-2,-2.1270161E-2,-0E0,-2.7819004E-2,-3.1327055E-4,1.1560876E-2,-2.492188E-3,-0E0,6.970817E-2,-0E0,3.5286115E-3],"split_indices":[26,2147483647,2147483647,2147483647,2147483647,2147483647,2147483647,2147483647,2147483647,2147483647,2147483647,2147483647,2147483647,2147483647,2147483647,2147483647,2147483647,2147483647,2147483647,2147483647,2147483647,2147483647,2147483647,2147483647,2147483647,2147483647,2147483647],"split_type":[0,0,0,0,0,0,0,0,0,0,0,0,0,0,0,0,0,0,0,0,0,0,0,0,0,0,0],"sum_hessian":[3.38E2,7.3E1,2.65E2,3E1,4.3E1,2.42E2,2.3E1,6E0,2.4E1,3.9E1,4E0,1.39E2,1.03E2,7E0,1.6E1,1.1E1,1.3E1,3.5E1,4E0,1E1,1.29E2,6.6E1,3.7E1,2E0,5E0,6E0,1E1],"tree_param":{"num_deleted":"26","num_feature":"178","num_nodes":"27","size_leaf_vector":"0"}},{"base_weights":[-0E0,-1.2956038E-2,4.6192566E-3,-6.332502E-2,-0E0,4.000887E-2,-0E0,-0E0,-8.50228E-2,7.283775E-4,-4.9681626E-2,7.105335E-2,-0E0,3.0061238E-2,-4.684903E-3,-1.1748028E-1,-0E0,5.1641077E-2,-2.735272E-4,1.17539085E-1,-0E0,-0E0,9.618697E-2,2.222091E-3,-2.9936273E-2],"categories":[],"categories_nodes":[],"categories_segments":[],"categories_sizes":[],"default_left":[1,1,1,1,1,1,1,1,1,1,1,1,1,1,1,1,1,1,1,1,1,1,1,1,1],"id":51,"left_children":[-1,-1,-1,-1,-1,-1,-1,-1,-1,-1,-1,-1,-1,-1,-1,-1,-1,-1,-1,-1,-1,-1,-1,-1,-1],"loss_changes":[2.1192852E-2,4.4037685E-2,3.8141347E-2,4.1054472E-2,1.7317925E-2,5.775355E-2,3.0201564E-2,0E0,3.6814056E-2,3.9968047E-2,0E0,5.100114E-2,0E0,6.631545E-2,5.1270165E-2,0E0,0E0,0E0,0E0,0E0,0E0,0E0,0E0,0E0,0E0],"parents":[2147483647,0,0,1,1,2,2,3,3,4,4,5,5,6,6,8,8,9,9,11,11,13,13,14,14],"right_children":[-1,-1,-1,-1,-1,-1,-1,-1,-1,-1,-1,-1,-1,-1,-1,-1,-1,-1,-1,-1,-1,-1,-1,-1,-1],"split_conditions":[-0E0,-3.8868117E-3,1.385777E-3,-1.8997505E-2,-0E0,1.2002661E-2,-0E0,-0E0,-2.5506841E-2,2.1851326E-4,-1.4904489E-2,2.1316005E-2,-0E0,9.018372E-3,-1.405471E-3,-3.5244085E-2,-0E0,1.5492324E-2,-8.205816E-5,3.5261728E-2,-0E0,-0E0,2.8856093E-2,6.666273E-4,-8.980882E-3],"split_indices":[9,2147483647,2147483647,2147483647,2147483647,2147483647,2147483647,2147483647,2147483647,2147483647,2147483647,2147483647,2147483647,2147483647,2147483647,2147483647,2147483647,2147483647,2147483647,2147483647,2147483647,2147483647,2147483647,2147483647,2147483647],"split_type":[0,0,0,0,0,0,0,0,0,0,0,0,0,0,0,0,0,0,0,0,0,0,0,0,0],"sum_hessian":[3.34E2,9.6E1,2.38E2,1.5E1,8.1E1,2.7E1,2.11E2,1E0,1.4E1,7.4E1,7E0,2E1,7E0,2.9E1,1.82E2,1E1,4E0,1.5E1,5.9E1,1.1E1,9E0,1.9E1,1E1,1.21E2,6.1E1],"tree_param":{"num_deleted":"24","num_feature":"178","num_nodes":"25","size_leaf_vector":"0"}},{"base_weights":[-0E0,-1.2084229E-2,1.1926423E-2,-2.0721486E-2,3.716445E-2,2.1559292E-2,-0E0,-3.442851E-2,-0E0,-0E0,8.553009E-2,-0E0,3.7766933E-2,-0E0,-1.09833665E-2,-0E0,-5.553874E-2,-1.4657372E-2,1.6556509E-2,-0E0,9.60575E-2,-3.568924E-2,-0E0,-0E0,4.9055398E-2,1.7988214E-1,-0E0,-2.2625657E-2,-0E0],"categories":[],"categories_nodes":[],"categories_segments":[],"categories_sizes":[],"default_left":[1,1,1,1,1,1,1,1,1,1,1,1,1,1,1,1,1,1,1,1,1,1,1,1,1,1,1,1,1],"id":52,"left_children":[-1,-1,-1,-1,-1,-1,-1,-1,-1,-1,-1,-1,-1,-1,-1,-1,-1,-1,-1,-1,-1,-1,-1,-1,-1,-1,-1,-1,-1],"loss_changes":[4.783745E-2,5.732527E-2,3.0666148E-2,6.1237417E-2,4.195077E-2,5.783452E-2,5.428585E-3,8.102144E-2,1.1705677E-2,0E0,6.066777E-3,1.2737638E-2,6.058245E-2,6.47259E-2,1.1464954E-2,0E0,0E0,0E0,0E0,0E0,0E0,0E0,0E0,0E0,0E0,0E0,0E0,0E0,0E0],"parents":[2147483647,0,0,1,1,2,2,3,3,4,4,5,5,6,6,7,7,8,8,10,10,11,11,12,12,13,13,14,14],"right_children":[-1,-1,-1,-1,-1,-1,-1,-1,-1,-1,-1,-1,-1,-1,-1,-1,-1,-1,-1,-1,-1,-1,-1,-1,-1,-1,-1,-1,-1],"split_conditions":[-0E0,-3.6252688E-3,3.577927E-3,-6.216446E-3,1.1149336E-2,6.467788E-3,-0E0,-1.0328554E-2,-0E0,-0E0,2.5659027E-2,-0E0,1.133008E-2,-0E0,-3.2950102E-3,-0E0,-1.6661623E-2,-4.3972116E-3,4.966953E-3,-0E0,2.881725E-2,-1.0706772E-2,-0E0,-0E0,1.471662E-2,5.3964645E-2,-0E0,-6.7876973E-3,-0E0],"split_indices":[56,2147483647,2147483647,2147483647,2147483647,2147483647,2147483647,2147483647,2147483647,2147483647,2147483647,2147483647,2147483647,2147483647,2147483647,2147483647,2147483647,2147483647,2147483647,2147483647,2147483647,2147483647,2147483647,2147483647,2147483647,2147483647,2147483647,2147483647,2147483647],"split_type":[0,0,0,0,0,0,0,0,0,0,0,0,0,0,0,0,0,0,0,0,0,0,0,0,0,0,0,0,0],"sum_hessian":[3.32E2,1.62E2,1.7E2,1.5E2,1.2E1,1.18E2,5.2E1,1.06E2,4.4E1,4E0,8E0,3.9E1,7.9E1,7E0,4.5E1,3.9E1,6.7E1,6E0,3.8E1,1E0,7E0,1E1,2.9E1,7E0,7.2E1,2E0,5E0,3.3E1,1.2E1],"tree_param":{"num_deleted":"28","num_feature":"178","num_nodes":"29","size_leaf_vector":"0"}},{"base_weights":[-0E0,-2.9933827E-3,2.1843012E-2,-0E0,-4.4831995E-2,-4.4961587E-2,4.7129508E-2,5.3566746E-2,-2.9808262E-3,-0E0,-9.604652E-2,-7.044942E-2,-0E0,7.68766E-2,-0E0,7.965471E-2,-0E0,-3.413445E-2,1.0130585E-3,-1.490356E-1,-0E0,-0E0,9.318128E-2],"categories":[],"categories_nodes":[],"categories_segments":[],"categories_sizes":[],"default_left":[1,1,1,1,1,1,1,1,1,1,1,1,1,1,1,1,1,1,1,1,1,1,1],"id":53,"left_children":[-1,-1,-1,-1,-1,-1,-1,-1,-1,-1,-1,-1,-1,-1,-1,-1,-1,-1,-1,-1,-1,-1,-1],"loss_changes":[2.9695775E-2,3.5688974E-2,9.7816244E-2,4.2358294E-2,5.406349E-2,1.8570468E-2,6.846325E-2,3.5968073E-2,5.394552E-2,0E0,6.323622E-2,0E0,0E0,6.5817624E-2,0E0,0E0,0E0,0E0,0E0,0E0,0E0,0E0,0E0],"parents":[2147483647,0,0,1,1,2,2,3,3,4,4,5,5,6,6,7,7,8,8,10,10,13,13],"right_children":[-1,-1,-1,-1,-1,-1,-1,-1,-1,-1,-1,-1,-1,-1,-1,-1,-1,-1,-1,-1,-1,-1,-1],"split_conditions":[-0E0,-8.9801487E-4,6.552904E-3,-0E0,-1.3449599E-2,-1.3488476E-2,1.4138853E-2,1.6070025E-2,